booster[0]:
0:[SHOP_DISTIDX_CUSTOM_TIME<1091.85] yes=1,no=2,missing=1
	1:[AREA_REALTIME_LEAVESHOP_AVGLOAD<1.60929] yes=3,no=4,missing=3
		3:[SHOP_DISTIDX_CUSTOM_TIME<857.955] yes=7,no=8,missing=7
			7:[SHOP_DISTIDX_CUSTOM_TIME<77.3333] yes=15,no=16,missing=15
				15:[ORDER_NAVI_DIST<1751.5] yes=31,no=32,missing=31
					31:leaf=246.834
					32:leaf=343.136
				16:[SHOP_DISTIDX_CUSTOM_TIME<694.102] yes=33,no=34,missing=33
					33:leaf=178.752
					34:leaf=221.432
			8:[AREA_REALTIME_TOCUSTOM_AVGLOAD<1.48153] yes=17,no=18,missing=17
				17:[SHOP_LEAVE_TIME<530.576] yes=35,no=36,missing=35
					35:leaf=247.542
					36:leaf=275.236
				18:[ORDER_TIMEIDX<132.5] yes=37,no=38,missing=37
					37:leaf=454.58
					38:leaf=314.752
		4:[AREA_REALTIME_LEAVESHOP_AVGLOAD<2.41578] yes=9,no=10,missing=9
			9:[ORDER_NAVI_DIST<835.5] yes=19,no=20,missing=19
				19:[AREA_REALTIME_ORDER<143.5] yes=39,no=40,missing=39
					39:leaf=341.612
					40:leaf=427.497
				20:[ORDER_WEEKDAY<3.5] yes=41,no=42,missing=41
					41:leaf=514.738
					42:leaf=353.172
			10:[ORDER_NAVI_DIST<1331] yes=21,no=22,missing=21
				21:[SHOP_DISTIDX_CUSTOM_TIME<803.091] yes=43,no=44,missing=43
					43:leaf=509.297
					44:leaf=658.713
				22:[AREA_REALTIME_LEAVE_TIME<808.885] yes=45,no=46,missing=45
					45:leaf=928.687
					46:leaf=739.46
	2:[AREA_REALTIME_LEAVESHOP_AVGLOAD<1.47346] yes=5,no=6,missing=5
		5:[SHOP_DISTIDX_CUSTOM_TIME<1406.3] yes=11,no=12,missing=11
			11:[SHOP_LEAVE_TIME<641.129] yes=23,no=24,missing=23
				23:[AREA_REALTIME_LEAVESHOP_AVGLOAD<1.30214] yes=47,no=48,missing=47
					47:leaf=303.086
					48:leaf=379.787
				24:[SHOP_REALTIME_OVERSTOCK<8.5] yes=49,no=50,missing=49
					49:leaf=340.414
					50:leaf=424.167
			12:[SHOP_LEAVE_TIME<793.794] yes=25,no=26,missing=25
				25:[AREA_REALTIME_LEAVESHOP_AVGLOAD<1.19313] yes=51,no=52,missing=51
					51:leaf=352.671
					52:leaf=421.05
				26:[SHOP_REALTIME_OVERSTOCK<8.5] yes=53,no=54,missing=53
					53:leaf=423.074
					54:leaf=529.308
		6:[AREA_REALTIME_LEAVESHOP_AVGLOAD<2.15045] yes=13,no=14,missing=13
			13:[AREA_REALTIME_ORDER<257] yes=27,no=28,missing=27
				27:[ORDER_WEEKDAY<3.5] yes=55,no=56,missing=55
					55:leaf=559.337
					56:leaf=423.692
				28:[AREA_DISTIDX_CUSTOM_TIME<1501.33] yes=57,no=58,missing=57
					57:leaf=677.073
					58:leaf=1048.02
			14:[AREA_TIMEIDX_ORDER<98.6111] yes=29,no=30,missing=29
				29:[SHOP_TIMEIDX_ARRIVAL_TIME<514.109] yes=59,no=60,missing=59
					59:leaf=580.077
					60:leaf=708.954
				30:[AREA_REALTIME_DISTIDX_ARRIVAL_TIME<768.194] yes=61,no=62,missing=61
					61:leaf=919.316
					62:leaf=729.011
booster[1]:
0:[SHOP_DISTIDX_CUSTOM_TIME<1046.24] yes=1,no=2,missing=1
	1:[AREA_REALTIME_LEAVESHOP_AVGLOAD<1.40916] yes=3,no=4,missing=3
		3:[SHOP_DISTIDX_CUSTOM_TIME<829.286] yes=7,no=8,missing=7
			7:[SHOP_DISTIDX_CUSTOM_TIME<77.3333] yes=15,no=16,missing=15
				15:[ORDER_NAVI_DIST<1140.5] yes=31,no=32,missing=31
					31:leaf=148.271
					32:leaf=228.661
				16:[SHOP_LEAVE_TIME<484.895] yes=33,no=34,missing=33
					33:leaf=122.514
					34:leaf=154.939
			8:[SHOP_DISTIDX_CUSTOM_TIME<933.957] yes=17,no=18,missing=17
				17:[SHOP_REALTIME_OVERSTOCK<15.5] yes=35,no=36,missing=35
					35:leaf=166.189
					36:leaf=247.179
				18:[SHOP_REALTIME_OVERSTOCK<15.5] yes=37,no=38,missing=37
					37:leaf=188.513
					38:leaf=280.644
		4:[AREA_REALTIME_ORDER<151.5] yes=9,no=10,missing=9
			9:[AREA_REALTIME_ORDER<37.5] yes=19,no=20,missing=19
				19:[AREA_REALTIME_LEAVESHOP_ORDER<81.5] yes=39,no=40,missing=39
					39:leaf=150.37
					40:leaf=213.666
				20:[ORDER_WEEKDAY<3.5] yes=41,no=42,missing=41
					41:leaf=303.243
					42:leaf=212.808
			10:[AREA_REALTIME_LEAVESHOP_AVGLOAD<2.13605] yes=21,no=22,missing=21
				21:[ORDER_NAVI_DIST<501.5] yes=43,no=44,missing=43
					43:leaf=253.992
					44:leaf=363.967
				22:[AREA_DISTIDX_TIMEIDX_ARRIVAL_TIME<385.797] yes=45,no=46,missing=45
					45:leaf=637.596
					46:leaf=452.55
	2:[AREA_REALTIME_LEAVESHOP_AVGLOAD<1.4152] yes=5,no=6,missing=5
		5:[SHOP_DISTIDX_CUSTOM_TIME<1300.86] yes=11,no=12,missing=11
			11:[SHOP_REALTIME_OVERSTOCK<13.5] yes=23,no=24,missing=23
				23:[SHOP_LEAVE_TIME<534.006] yes=47,no=48,missing=47
					47:leaf=194.745
					48:leaf=222.005
				24:[SHOP_REALTIME_LEAVE_TIME<674.8] yes=49,no=50,missing=49
					49:leaf=267.656
					50:leaf=325.125
			12:[SHOP_LEAVE_TIME<710.278] yes=25,no=26,missing=25
				25:[ORDER_NAVI_DIST<2379.5] yes=51,no=52,missing=51
					51:leaf=203.869
					52:leaf=249.807
				26:[SHOP_DISTIDX_CUSTOM_TIME<1654.12] yes=53,no=54,missing=53
					53:leaf=274.025
					54:leaf=324.784
		6:[ORDER_TIMEIDX<135.5] yes=13,no=14,missing=13
			13:[AREA_DISTIDX_CUSTOM_TIME<1501.33] yes=27,no=28,missing=27
				27:[ORDER_WEEKDAY<3.5] yes=55,no=56,missing=55
					55:leaf=483.986
					56:leaf=317.548
				28:[AREA_REALTIME_ORDER<233.5] yes=57,no=58,missing=57
					57:leaf=361.641
					58:leaf=718.156
			14:[AREA_REALTIME_LEAVESHOP_AVGLOAD<1.74824] yes=29,no=30,missing=29
				29:[AREA_REALTIME_TOSHOP_ORDER<116] yes=59,no=60,missing=59
					59:leaf=212.963
					60:leaf=307.994
				30:[AREA_REALTIME_LEAVESHOP_AVGLOAD<2.47854] yes=61,no=62,missing=61
					61:leaf=390.872
					62:leaf=527.832
booster[2]:
0:[SHOP_DISTIDX_CUSTOM_TIME<1192.47] yes=1,no=2,missing=1
	1:[AREA_REALTIME_LEAVESHOP_AVGLOAD<1.45026] yes=3,no=4,missing=3
		3:[SHOP_DISTIDX_CUSTOM_TIME<897.533] yes=7,no=8,missing=7
			7:[ORDER_DIST<237.073] yes=15,no=16,missing=15
				15:[SHOP_LEAVE_TIME<530.979] yes=31,no=32,missing=31
					31:leaf=61.5744
					32:leaf=94.0187
				16:[SHOP_LEAVE_TIME<596.519] yes=33,no=34,missing=33
					33:leaf=105.78
					34:leaf=147.345
			8:[SHOP_REALTIME_LEAVE_TIME<686.071] yes=17,no=18,missing=17
				17:[ORDER_NAVI_DIST<2336.5] yes=35,no=36,missing=35
					35:leaf=128.826
					36:leaf=150.89
				18:[SHOP_REALTIME_OVERSTOCK<4.5] yes=37,no=38,missing=37
					37:leaf=149.43
					38:leaf=193.003
		4:[AREA_REALTIME_ORDER<114.5] yes=9,no=10,missing=9
			9:[AREA_REALTIME_LEAVESHOP_AVGLOAD<1.95372] yes=19,no=20,missing=19
				19:[AREA_REALTIME_AVG_DIST<1124.52] yes=39,no=40,missing=39
					39:leaf=127.141
					40:leaf=183.933
				20:[AREA_DISTIDX_TIMEIDX_CUSTOM_TIME<1188.33] yes=41,no=42,missing=41
					41:leaf=192.632
					42:leaf=267.741
			10:[ORDER_NAVI_DIST<1014.5] yes=21,no=22,missing=21
				21:[ORDER_NAVI_DIST<333.5] yes=43,no=44,missing=43
					43:leaf=157.586
					44:leaf=233.12
				22:[AREA_REALTIME_LEAVESHOP_AVGLOAD<2.14186] yes=45,no=46,missing=45
					45:leaf=269.936
					46:leaf=403.426
	2:[AREA_REALTIME_LEAVESHOP_AVGLOAD<1.35111] yes=5,no=6,missing=5
		5:[SHOP_LEAVE_TIME<731.668] yes=11,no=12,missing=11
			11:[ORDER_NAVI_DIST<2506.5] yes=23,no=24,missing=23
				23:[AREA_DISTIDX_ARRIVAL_TIME<291.07] yes=47,no=48,missing=47
					47:leaf=155.963
					48:leaf=114.372
				24:[SHOP_LEAVE_TIME<536.731] yes=49,no=50,missing=49
					49:leaf=152.146
					50:leaf=185.75
			12:[ORDER_NAVI_DIST<2506.5] yes=25,no=26,missing=25
				25:[SHOP_LEAVE_TIME<1035.85] yes=51,no=52,missing=51
					51:leaf=175.437
					52:leaf=231.14
				26:[SHOP_LEAVE_TIME<1035.85] yes=53,no=54,missing=53
					53:leaf=217.54
					54:leaf=292.373
		6:[ORDER_TIMEIDX<134.5] yes=13,no=14,missing=13
			13:[SHOP_DISTIDX_CUSTOM_TIME<1640.47] yes=27,no=28,missing=27
				27:[ORDER_WEEKDAY<3.5] yes=55,no=56,missing=55
					55:leaf=367.788
					56:leaf=236.465
				28:[SHOP_REALTIME_OVERSTOCK<14.5] yes=57,no=58,missing=57
					57:leaf=466.595
					58:leaf=623.072
			14:[AREA_REALTIME_LEAVESHOP_AVGLOAD<1.9199] yes=29,no=30,missing=29
				29:[AREA_AVG_ORDER<7366.72] yes=59,no=60,missing=59
					59:leaf=194.525
					60:leaf=258.232
				30:[AREA_DISTIDX_TIMEIDX_CUSTOM_TIME<1815.11] yes=61,no=62,missing=61
					61:leaf=306.914
					62:leaf=409.469
booster[3]:
0:[SHOP_DISTIDX_CUSTOM_TIME<1132.69] yes=1,no=2,missing=1
	1:[AREA_REALTIME_TOCUSTOM_AVGLOAD<1.48153] yes=3,no=4,missing=3
		3:[SHOP_LEAVE_TIME<498.854] yes=7,no=8,missing=7
			7:[ORDER_NAVI_DIST<1701.5] yes=15,no=16,missing=15
				15:[ORDER_NAVI_DIST<779.5] yes=31,no=32,missing=31
					31:leaf=42.2728
					32:leaf=62.7882
				16:[ORDER_NAVI_DIST<2696.5] yes=33,no=34,missing=33
					33:leaf=79.748
					34:leaf=107.602
			8:[ORDER_NAVI_DIST<336.5] yes=17,no=18,missing=17
				17:[SHOP_LEAVE_TIME<732.669] yes=35,no=36,missing=35
					35:leaf=53.6443
					36:leaf=82.2493
				18:[SHOP_LEAVE_TIME<727.608] yes=37,no=38,missing=37
					37:leaf=92.3439
					38:leaf=124.384
		4:[ORDER_TIMEIDX<136.5] yes=9,no=10,missing=9
			9:[ORDER_WEEKDAY<3.5] yes=19,no=20,missing=19
				19:[ORDER_NAVI_DIST<771.5] yes=39,no=40,missing=39
					39:leaf=155.743
					40:leaf=220.742
				20:[AREA_TIMEIDX_RIDER<278.889] yes=41,no=42,missing=41
					41:leaf=92.4591
					42:leaf=140.177
			10:[AREA_REALTIME_LEAVESHOP_AVGLOAD<1.82256] yes=21,no=22,missing=21
				21:[ORDER_NAVI_DIST<1286.5] yes=43,no=44,missing=43
					43:leaf=95.7081
					44:leaf=126.253
				22:[ORDER_NAVI_DIST<1093.5] yes=45,no=46,missing=45
					45:leaf=134.425
					46:leaf=194.834
	2:[AREA_REALTIME_LEAVESHOP_AVGLOAD<1.29363] yes=5,no=6,missing=5
		5:[SHOP_LEAVE_TIME<683.886] yes=11,no=12,missing=11
			11:[ORDER_NAVI_DIST<1614.5] yes=23,no=24,missing=23
				23:[AREA_DISTIDX_ARRIVAL_TIME<275.341] yes=47,no=48,missing=47
					47:leaf=88.009
					48:leaf=42.8276
				24:[SHOP_LEAVE_TIME<475.472] yes=49,no=50,missing=49
					49:leaf=87.3805
					50:leaf=114.827
			12:[AREA_TIMEIDX_ORDER<58.1667] yes=25,no=26,missing=25
				25:[ORDER_DIST<1401.83] yes=51,no=52,missing=51
					51:leaf=103.664
					52:leaf=135.107
				26:[SHOP_REALTIME_OVERSTOCK<13.5] yes=53,no=54,missing=53
					53:leaf=146.819
					54:leaf=243.142
		6:[ORDER_TIMEIDX<134.5] yes=13,no=14,missing=13
			13:[AREA_TIMEIDX_ORDER<73.2778] yes=27,no=28,missing=27
				27:[AREA_REALTIME_TOCUSTOM_AVGLOAD<3.2614] yes=55,no=56,missing=55
					55:leaf=172.153
					56:leaf=425.419
				28:[SHOP_DISTIDX_CUSTOM_TIME<1612.05] yes=57,no=58,missing=57
					57:leaf=257.857
					58:leaf=371.056
			14:[SHOP_DISTIDX_CUSTOM_TIME<1482.56] yes=29,no=30,missing=29
				29:[AREA_REALTIME_LEAVESHOP_AVGLOAD<1.72331] yes=59,no=60,missing=59
					59:leaf=137.813
					60:leaf=196.401
				30:[SHOP_REALTIME_OVERSTOCK<12.5] yes=61,no=62,missing=61
					61:leaf=195.428
					62:leaf=283.846
booster[4]:
0:[AREA_DISTIDX_TIMEIDX_CUSTOM_TIME<1089.06] yes=1,no=2,missing=1
	1:[SHOP_LEAVE_TIME<620.107] yes=3,no=4,missing=3
		3:[ORDER_NAVI_DIST<1000.5] yes=7,no=8,missing=7
			7:[SHOP_LEAVE_TIME<408.833] yes=15,no=16,missing=15
				15:[SHOP_AVG_DIST<428.855] yes=31,no=32,missing=31
					31:leaf=55.3459
					32:leaf=12.9733
				16:[SHOP_REALTIME_OVERSTOCK<6.5] yes=33,no=34,missing=33
					33:leaf=39.8465
					34:leaf=82.3666
			8:[SHOP_LEAVE_TIME<372.316] yes=17,no=18,missing=17
				17:[SHOP_AVG_DIST<553.466] yes=35,no=36,missing=35
					35:leaf=79.739
					36:leaf=31.7585
				18:[SHOP_AVG_ORDER<199.889] yes=37,no=38,missing=37
					37:leaf=63.818
					38:leaf=40.6999
		4:[SHOP_REALTIME_OVERSTOCK<10.5] yes=9,no=10,missing=9
			9:[ORDER_DIST<189.518] yes=19,no=20,missing=19
				19:[AREA_TIMEIDX_LEAVESHOP_ORDER<163.722] yes=39,no=40,missing=39
					39:leaf=35.467
					40:leaf=62.2457
				20:[SHOP_AVG_ORDER<114.444] yes=41,no=42,missing=41
					41:leaf=79.6441
					42:leaf=54.6448
			10:[SHOP_REALTIME_OVERSTOCK<19.5] yes=21,no=22,missing=21
				21:[SHOP_AVG_ORDER<139.889] yes=43,no=44,missing=43
					43:leaf=166.505
					44:leaf=116.142
				22:[SHOP_AVG_DIST<1048.69] yes=45,no=46,missing=45
					45:leaf=308.991
					46:leaf=167.33
	2:[AREA_REALTIME_LEAVESHOP_AVGLOAD<1.70349] yes=5,no=6,missing=5
		5:[SHOP_LEAVE_TIME<613.342] yes=11,no=12,missing=11
			11:[ORDER_NAVI_DIST<3051.5] yes=23,no=24,missing=23
				23:[AREA_REALTIME_LEAVESHOP_AVGLOAD<1.19422] yes=47,no=48,missing=47
					47:leaf=57.7119
					48:leaf=84.1522
				24:[AREA_REALTIME_TOCUSTOM_AVGLOAD<1.3089] yes=49,no=50,missing=49
					49:leaf=86.6269
					50:leaf=118.797
			12:[SHOP_LEAVE_TIME<964.417] yes=25,no=26,missing=25
				25:[AREA_REALTIME_ORDER<96.5] yes=51,no=52,missing=51
					51:leaf=89.6217
					52:leaf=119.542
				26:[AREA_REALTIME_ORDER<119.5] yes=53,no=54,missing=53
					53:leaf=140.406
					54:leaf=237.268
		6:[AREA_REALTIME_LEAVESHOP_AVGLOAD<2.47783] yes=13,no=14,missing=13
			13:[ORDER_TIMEIDX<130.5] yes=27,no=28,missing=27
				27:[AREA_REALTIME_AVG_DIST<1375.09] yes=55,no=56,missing=55
					55:leaf=294.775
					56:leaf=143.02
				28:[ORDER_NAVI_DIST<1377.5] yes=57,no=58,missing=57
					57:leaf=99.2113
					58:leaf=150.304
			14:[ORDER_NAVI_DIST<1436.5] yes=29,no=30,missing=29
				29:[AREA_REALTIME_DISTIDX_CUSTOM_TIME<1049.67] yes=59,no=60,missing=59
					59:leaf=245.185
					60:leaf=132.344
				30:[ORDER_DIST<2062.29] yes=61,no=62,missing=61
					61:leaf=238.901
					62:leaf=320.686
booster[5]:
0:[ORDER_NAVI_DIST<1771.5] yes=1,no=2,missing=1
	1:[SHOP_REALTIME_OVERSTOCK<9.5] yes=3,no=4,missing=3
		3:[SHOP_LEAVE_TIME<788.899] yes=7,no=8,missing=7
			7:[AREA_TIMEIDX_ORDER<52.1111] yes=15,no=16,missing=15
				15:[ORDER_DIST<130.707] yes=31,no=32,missing=31
					31:leaf=7.50057
					32:leaf=29.6749
				16:[SHOP_LEAVE_TIME<532.24] yes=33,no=34,missing=33
					33:leaf=31.2693
					34:leaf=49.2743
			8:[SHOP_AVG_ORDER<119.833] yes=17,no=18,missing=17
				17:[SHOP_REALTIME_OVERSTOCK<3.5] yes=35,no=36,missing=35
					35:leaf=61.0938
					36:leaf=94.743
				18:[AREA_DISTIDX_ARRIVAL_TIME<242.265] yes=37,no=38,missing=37
					37:leaf=62.5529
					38:leaf=10.9108
		4:[SHOP_REALTIME_LEAVE_TIME<1117.69] yes=9,no=10,missing=9
			9:[SHOP_REALTIME_NET_INFLOW<0.5] yes=19,no=20,missing=19
				19:[SHOP_REALTIME_LEAVE_TIME<463.464] yes=39,no=40,missing=39
					39:leaf=22.2034
					40:leaf=68.7266
				20:[ORDER_WEEKDAY<3.5] yes=41,no=42,missing=41
					41:leaf=112.928
					42:leaf=70.5957
			10:[ORDER_TIMEIDX<137.5] yes=21,no=22,missing=21
				21:[AREA_REALTIME_TOCUSTOM_ORDER<739.5] yes=43,no=44,missing=43
					43:leaf=147.469
					44:leaf=257.602
				22:[SHOP_REALTIME_OVERSTOCK<19.5] yes=45,no=46,missing=45
					45:leaf=106.455
					46:leaf=172.728
	2:[AREA_REALTIME_TOCUSTOM_AVGLOAD<1.3089] yes=5,no=6,missing=5
		5:[SHOP_LEAVE_TIME<484.954] yes=11,no=12,missing=11
			11:[SHOP_AVG_ORDER<200.778] yes=23,no=24,missing=23
				23:[SHOP_TIMEIDX_NET_INFLOW<-2.375] yes=47,no=48,missing=47
					47:leaf=65.6587
					48:leaf=41.2254
				24:[SHOP_AVG_DIST<1259.18] yes=49,no=50,missing=49
					49:leaf=49.5859
					50:leaf=8.42599
			12:[SHOP_LEAVE_TIME<842.984] yes=25,no=26,missing=25
				25:[ORDER_NAVI_DIST<3169.5] yes=51,no=52,missing=51
					51:leaf=55.7761
					52:leaf=78.9555
				26:[SHOP_AVG_ORDER<124.104] yes=53,no=54,missing=53
					53:leaf=95.9123
					54:leaf=57.0408
		6:[ORDER_TIMEIDX<129.5] yes=13,no=14,missing=13
			13:[AREA_REALTIME_ORDER<30.5] yes=27,no=28,missing=27
				27:[AREA_REALTIME_RIDER<45.5] yes=55,no=56,missing=55
					55:leaf=29.6704
					56:leaf=121.731
				28:[ORDER_TIMEIDX<127.5] yes=57,no=58,missing=57
					57:leaf=443.731
					58:leaf=221.568
			14:[AREA_REALTIME_LEAVESHOP_AVGLOAD<1.82836] yes=29,no=30,missing=29
				29:[SHOP_LEAVE_TIME<839.838] yes=59,no=60,missing=59
					59:leaf=70.5424
					60:leaf=126.998
				30:[SHOP_ARRIVAL_TIME<326.022] yes=61,no=62,missing=61
					61:leaf=117.643
					62:leaf=190.512
booster[6]:
0:[SHOP_REALTIME_LEAVE_TIME<734.45] yes=1,no=2,missing=1
	1:[ORDER_NAVI_DIST<1191.5] yes=3,no=4,missing=3
		3:[SHOP_LEAVE_TIME<663.855] yes=7,no=8,missing=7
			7:[AREA_REALTIME_ORDER<276] yes=15,no=16,missing=15
				15:[AREA_ARRIVAL_TIME<279.317] yes=31,no=32,missing=31
					31:leaf=17.9017
					32:leaf=-0.642713
				16:[AREA_REALTIME_DISTIDX_ARRIVAL_TIME<293.946] yes=33,no=34,missing=33
					33:leaf=252.968
					34:leaf=69.4329
			8:[AREA_DISTIDX_ARRIVAL_TIME<271.277] yes=17,no=18,missing=17
				17:[AREA_TIMEIDX_CUSTOM_TIME<1041.82] yes=35,no=36,missing=35
					35:leaf=30.711
					36:leaf=49.8205
				18:[SHOP_LEAVE_TIME<1073.27] yes=37,no=38,missing=37
					37:leaf=13.4339
					38:leaf=80.3944
		4:[SHOP_AVG_ORDER<134.167] yes=9,no=10,missing=9
			9:[SHOP_LEAVE_TIME<582.847] yes=19,no=20,missing=19
				19:[AREA_AVG_RIDER<435.667] yes=39,no=40,missing=39
					39:leaf=25.0871
					40:leaf=40.5177
				20:[AREA_REALTIME_ORDER<146.5] yes=41,no=42,missing=41
					41:leaf=48.5793
					42:leaf=92.8598
			10:[SHOP_REALTIME_OVERSTOCK<11.5] yes=21,no=22,missing=21
				21:[SHOP_REALTIME_ARRIVAL_TIME<227.917] yes=43,no=44,missing=43
					43:leaf=12.8054
					44:leaf=36.8608
				22:[ORDER_TIMEIDX<128.5] yes=45,no=46,missing=45
					45:leaf=173.704
					46:leaf=56.5478
	2:[SHOP_REALTIME_OVERSTOCK<6.5] yes=5,no=6,missing=5
		5:[AREA_TIMEIDX_ORDER<47.8333] yes=11,no=12,missing=11
			11:[SHOP_REALTIME_LEAVE_TIME<1264.25] yes=23,no=24,missing=23
				23:[ORDER_NAVI_DIST<2199.5] yes=47,no=48,missing=47
					47:leaf=31.2206
					48:leaf=48.0643
				24:[SHOP_TIMEIDX_LEAVE_TIME<961.333] yes=49,no=50,missing=49
					49:leaf=49.7316
					50:leaf=101.262
			12:[ORDER_NAVI_DIST<1416.5] yes=25,no=26,missing=25
				25:[AREA_REALTIME_ORDER<243.5] yes=51,no=52,missing=51
					51:leaf=45.3017
					52:leaf=103.774
				26:[SHOP_AVG_ORDER<6.94444] yes=53,no=54,missing=53
					53:leaf=134.538
					54:leaf=63.8614
		6:[ORDER_TIMEIDX<135.5] yes=13,no=14,missing=13
			13:[SHOP_DISTIDX_CUSTOM_TIME<1867.06] yes=27,no=28,missing=27
				27:[SHOP_REALTIME_OVERSTOCK<18.5] yes=55,no=56,missing=55
					55:leaf=105.74
					56:leaf=174.23
				28:[AREA_REALTIME_AVG_DIST<1351.5] yes=57,no=58,missing=57
					57:leaf=211.776
					58:leaf=490.837
			14:[SHOP_REALTIME_LEAVE_TIME<1116.42] yes=29,no=30,missing=29
				29:[SHOP_REALTIME_OVERSTOCK<22.5] yes=59,no=60,missing=59
					59:leaf=60.6298
					60:leaf=105.527
				30:[SHOP_REALTIME_OVERSTOCK<20.5] yes=61,no=62,missing=61
					61:leaf=94.0941
					62:leaf=149.998
booster[7]:
0:[ORDER_NAVI_DIST<2241.5] yes=1,no=2,missing=1
	1:[AREA_REALTIME_ORDER<187.5] yes=3,no=4,missing=3
		3:[SHOP_LEAVE_TIME<445.12] yes=7,no=8,missing=7
			7:[SHOP_AVG_DIST<282.612] yes=15,no=16,missing=15
				15:[AREA_AVG_RIDER<672.889] yes=31,no=32,missing=31
					31:leaf=18.6377
					32:leaf=57.838
				16:[SHOP_LEAVE_TIME<355.417] yes=33,no=34,missing=33
					33:leaf=-8.64342
					34:leaf=9.98072
			8:[AREA_DISTIDX_ARRIVAL_TIME<269.177] yes=17,no=18,missing=17
				17:[ORDER_DIST<103.605] yes=35,no=36,missing=35
					35:leaf=2.18203
					36:leaf=25.7844
				18:[AREA_REALTIME_TOCUSTOM_AVGLOAD<1.27462] yes=37,no=38,missing=37
					37:leaf=4.92215
					38:leaf=26.1959
		4:[ORDER_TIMEIDX<128.5] yes=9,no=10,missing=9
			9:[AREA_DISTIDX_TIMEIDX_LEAVE_TIME<721.924] yes=19,no=20,missing=19
				19:[SHOP_REALTIME_OVERSTOCK<26] yes=39,no=40,missing=39
					39:leaf=191.716
					40:leaf=601.918
				20:[SHOP_DISTIDX_CUSTOM_TIME<1712] yes=41,no=42,missing=41
					41:leaf=-189.433
					42:leaf=134.821
			10:[SHOP_ARRIVAL_TIME<325.417] yes=21,no=22,missing=21
				21:[SHOP_REALTIME_OVERSTOCK<45] yes=43,no=44,missing=43
					43:leaf=39.6491
					44:leaf=139.425
				22:[AREA_TIMEIDX_TOSHOP_ORDER<294.5] yes=45,no=46,missing=45
					45:leaf=156.519
					46:leaf=69.0828
	2:[AREA_REALTIME_LEAVESHOP_AVGLOAD<1.73175] yes=5,no=6,missing=5
		5:[ORDER_NAVI_DIST<3531.5] yes=11,no=12,missing=11
			11:[SHOP_LEAVE_TIME<1190.12] yes=23,no=24,missing=23
				23:[SHOP_AVG_ORDER<20.746] yes=47,no=48,missing=47
					47:leaf=46.1637
					48:leaf=28.041
				24:[AREA_REALTIME_ORDER<97.5] yes=49,no=50,missing=49
					49:leaf=116.855
					50:leaf=222.719
			12:[SHOP_AVG_ORDER<114.889] yes=25,no=26,missing=25
				25:[SHOP_LEAVE_TIME<706.397] yes=51,no=52,missing=51
					51:leaf=53.3466
					52:leaf=79.7311
				26:[SHOP_REALTIME_OVERSTOCK<12.5] yes=53,no=54,missing=53
					53:leaf=30.3605
					54:leaf=82.7903
		6:[ORDER_TIMEIDX<133.5] yes=13,no=14,missing=13
			13:[SHOP_ARRIVAL_TIME<498.313] yes=27,no=28,missing=27
				27:[SHOP_REALTIME_AVG_DIST<1172.5] yes=55,no=56,missing=55
					55:leaf=94.7636
					56:leaf=153.54
				28:[AREA_REALTIME_DISTIDX_CUSTOM_TIME<1223.55] yes=57,no=58,missing=57
					57:leaf=481.391
					58:leaf=198.039
			14:[AREA_AVG_DIST<1165.32] yes=29,no=30,missing=29
				29:[SHOP_TIMEIDX_LEAVE_TIME<887.766] yes=59,no=60,missing=59
					59:leaf=27.5198
					60:leaf=90.8635
				30:[SHOP_TIMEIDX_NET_INFLOW<1.23611] yes=61,no=62,missing=61
					61:leaf=85.4149
					62:leaf=168.504
booster[8]:
0:[SHOP_REALTIME_OVERSTOCK<4.5] yes=1,no=2,missing=1
	1:[SHOP_AVG_ORDER<71.3889] yes=3,no=4,missing=3
		3:[SHOP_LEAVE_TIME<915.706] yes=7,no=8,missing=7
			7:[ORDER_NAVI_DIST<2749.5] yes=15,no=16,missing=15
				15:[ORDER_NAVI_DIST<519.5] yes=31,no=32,missing=31
					31:leaf=4.08933
					32:leaf=17.282
				16:[AREA_AVG_RIDER<435.667] yes=33,no=34,missing=33
					33:leaf=21.9203
					34:leaf=38.117
			8:[SHOP_LEAVE_TIME<1401.12] yes=17,no=18,missing=17
				17:[ORDER_DIST<96.5201] yes=35,no=36,missing=35
					35:leaf=-16.1397
					36:leaf=47.536
				18:[AREA_REALTIME_TOCUSTOM_ORDER<66] yes=37,no=38,missing=37
					37:leaf=18.098
					38:leaf=180.959
		4:[AREA_LEAVE_TIME<596.418] yes=9,no=10,missing=9
			9:[SHOP_LEAVE_TIME<365.594] yes=19,no=20,missing=19
				19:[AREA_CUSTOM_TIME<1023.9] yes=39,no=40,missing=39
					39:leaf=0.795696
					40:leaf=-20.905
				20:[ORDER_TIMEIDX<192.5] yes=41,no=42,missing=41
					41:leaf=6.07349
					42:leaf=19.6541
			10:[ORDER_TIMEIDX<136.5] yes=21,no=22,missing=21
				21:[AREA_REALTIME_ORDER<104.5] yes=43,no=44,missing=43
					43:leaf=10.2981
					44:leaf=59.2392
				22:[SHOP_AVG_DIST<1134.16] yes=45,no=46,missing=45
					45:leaf=3.58752
					46:leaf=-10.6307
	2:[SHOP_REALTIME_LEAVE_TIME<-499996] yes=5,no=6,missing=5
		5:[ORDER_TIMEIDX<130.5] yes=11,no=12,missing=11
			11:[ORDER_WEEKDAY<3.5] yes=23,no=24,missing=23
				23:[ORDER_WEEKDAY<2.5] yes=47,no=48,missing=47
					47:leaf=68.8089
					48:leaf=182.853
				24:[AREA_DISTIDX_LEAVE_TIME<706.923] yes=49,no=50,missing=49
					49:leaf=42.1991
					50:leaf=212.81
			12:[SHOP_LEAVE_TIME<1011.86] yes=25,no=26,missing=25
				25:[SHOP_REALTIME_OVERSTOCK<9.5] yes=51,no=52,missing=51
					51:leaf=55.5294
					52:leaf=98.1004
				26:[AREA_REALTIME_ARRIVAL_TIME<440.258] yes=53,no=54,missing=53
					53:leaf=104.935
					54:leaf=198.841
		6:[SHOP_REALTIME_LEAVE_TIME<411.775] yes=13,no=14,missing=13
			13:[SHOP_REALTIME_ARRIVAL_TIME<134.389] yes=27,no=28,missing=27
				27:[SHOP_AVG_ORDER<608.5] yes=55,no=56,missing=55
					55:leaf=-9.07341
					56:leaf=-41.6347
				28:[SHOP_REALTIME_NET_INFLOW<1.5] yes=57,no=58,missing=57
					57:leaf=5.5525
					58:leaf=34.1212
			14:[SHOP_REALTIME_OVERSTOCK<16.5] yes=29,no=30,missing=29
				29:[SHOP_REALTIME_NET_INFLOW<-1.5] yes=59,no=60,missing=59
					59:leaf=14.8562
					60:leaf=39.1997
				30:[AREA_TIMEIDX_TOCUSTOM_AVGLOAD<1.34233] yes=61,no=62,missing=61
					61:leaf=111.657
					62:leaf=56.236
booster[9]:
0:[ORDER_WEEKDAY<3.5] yes=1,no=2,missing=1
	1:[AREA_REALTIME_TOCUSTOM_AVGLOAD<1.30853] yes=3,no=4,missing=3
		3:[SHOP_LEAVE_TIME<824.88] yes=7,no=8,missing=7
			7:[AREA_TIMEIDX_TOCUSTOM_AVGLOAD<1.52989] yes=15,no=16,missing=15
				15:[AREA_TIMEIDX_ORDER<49.2778] yes=31,no=32,missing=31
					31:leaf=8.5202
					32:leaf=18.7886
				16:[SHOP_TIMEIDX_OVERSTOCK<8.05556] yes=33,no=34,missing=33
					33:leaf=1.60524
					34:leaf=-22.5703
			8:[AREA_LEAVE_TIME<568.907] yes=17,no=18,missing=17
				17:[SHOP_REALTIME_OVERSTOCK<3.5] yes=35,no=36,missing=35
					35:leaf=39.4871
					36:leaf=77.8107
				18:[SHOP_AVG_ORDER<35.2222] yes=37,no=38,missing=37
					37:leaf=35.3717
					38:leaf=12.9558
		4:[ORDER_TIMEIDX<130.5] yes=9,no=10,missing=9
			9:[AREA_REALTIME_TOSHOP_AVGLOAD<1.23517] yes=19,no=20,missing=19
				19:[AREA_REALTIME_ORDER<30.5] yes=39,no=40,missing=39
					39:leaf=21.0104
					40:leaf=177.611
				20:[SHOP_CUSTOM_TIME<1640.05] yes=41,no=42,missing=41
					41:leaf=60.2435
					42:leaf=210.132
			10:[AREA_REALTIME_LEAVESHOP_ORDER<123.5] yes=21,no=22,missing=21
				21:[AREA_TIMEIDX_TOCUSTOM_AVGLOAD<1.65196] yes=43,no=44,missing=43
					43:leaf=7.22809
					44:leaf=-16.7417
				22:[ORDER_TIMEIDX<202.5] yes=45,no=46,missing=45
					45:leaf=23.2102
					46:leaf=56.5232
	2:[AREA_AVG_RIDER<426.444] yes=5,no=6,missing=5
		5:[SHOP_REALTIME_LEAVE_TIME<-499997] yes=11,no=12,missing=11
			11:[SHOP_AVG_ORDER<25.2778] yes=23,no=24,missing=23
				23:[SHOP_REALTIME_AVG_DIST<2443.78] yes=47,no=48,missing=47
					47:leaf=7.95839
					48:leaf=126.163
				24:[SHOP_REALTIME_OVERSTOCK<1.5] yes=49,no=50,missing=49
					49:leaf=-3.14837
					50:leaf=10.2353
			12:[SHOP_REALTIME_LEAVE_TIME<602.833] yes=25,no=26,missing=25
				25:[SHOP_AVG_DIST<1333.14] yes=51,no=52,missing=51
					51:leaf=-11.6101
					52:leaf=-25.6511
				26:[ORDER_TIMEIDX<135.5] yes=53,no=54,missing=53
					53:leaf=16.1946
					54:leaf=0.661421
		6:[AREA_DISTIDX_ARRIVAL_TIME<252.202] yes=13,no=14,missing=13
			13:[SHOP_ARRIVAL_TIME<264.11] yes=27,no=28,missing=27
				27:[SHOP_LEAVE_TIME<414.079] yes=55,no=56,missing=55
					55:leaf=1.83465
					56:leaf=13.4113
				28:[AREA_AVG_DIST<1145.75] yes=57,no=58,missing=57
					57:leaf=31.9943
					58:leaf=16.7706
			14:[SHOP_LEAVE_TIME<1178.55] yes=29,no=30,missing=29
				29:[AREA_AVG_ORDER<12120.2] yes=59,no=60,missing=59
					59:leaf=-3.14296
					60:leaf=9.97343
				30:[SHOP_TIMEIDX_LEAVE_TIME<1327.61] yes=61,no=62,missing=61
					61:leaf=40.5032
					62:leaf=144.566
booster[10]:
0:[SHOP_REALTIME_LEAVE_TIME<871.125] yes=1,no=2,missing=1
	1:[SHOP_REALTIME_LEAVE_TIME<-499997] yes=3,no=4,missing=3
		3:[SHOP_REALTIME_OVERSTOCK<2.5] yes=7,no=8,missing=7
			7:[ORDER_NAVI_DIST<2974.5] yes=15,no=16,missing=15
				15:[SHOP_AVG_ORDER<30.3542] yes=31,no=32,missing=31
					31:leaf=11.7996
					32:leaf=3.35291
				16:[SHOP_AVG_ORDER<11.3667] yes=33,no=34,missing=33
					33:leaf=41.6203
					34:leaf=19.0751
			8:[SHOP_TIMEIDX_LEAVE_TIME<1036.4] yes=17,no=18,missing=17
				17:[SHOP_AVG_ORDER<20.6458] yes=35,no=36,missing=35
					35:leaf=62.9792
					36:leaf=27.4261
				18:[SHOP_LEAVE_TIME<1037.63] yes=37,no=38,missing=37
					37:leaf=50.8591
					38:leaf=91.571
		4:[SHOP_REALTIME_LEAVE_TIME<369.211] yes=9,no=10,missing=9
			9:[SHOP_REALTIME_ARRIVAL_TIME<102.708] yes=19,no=20,missing=19
				19:[AREA_DISTIDX_ARRIVAL_TIME<245.067] yes=39,no=40,missing=39
					39:leaf=-11.098
					40:leaf=-22.1165
				20:[SHOP_REALTIME_NET_INFLOW<1.5] yes=41,no=42,missing=41
					41:leaf=-6.01062
					42:leaf=12.7472
			10:[SHOP_REALTIME_NET_INFLOW<0.5] yes=21,no=22,missing=21
				21:[SHOP_CUSTOM_TIME<1277.51] yes=43,no=44,missing=43
					43:leaf=6.22113
					44:leaf=-7.75184
				22:[ORDER_TIMEIDX<133.5] yes=45,no=46,missing=45
					45:leaf=42.6613
					46:leaf=17.0922
	2:[SHOP_REALTIME_OVERSTOCK<11.5] yes=5,no=6,missing=5
		5:[SHOP_AVG_ORDER<2.47222] yes=11,no=12,missing=11
			11:[SHOP_REALTIME_OVERSTOCK<7.5] yes=23,no=24,missing=23
				23:[AREA_REALTIME_ORDER<345.5] yes=47,no=48,missing=47
					47:leaf=76.7503
					48:leaf=361.56
				24:[AREA_AVG_DIST<1138.7] yes=49,no=50,missing=49
					49:leaf=118.712
					50:leaf=397.076
			12:[SHOP_TIMEIDX_CUSTOM_TIME<1583.62] yes=25,no=26,missing=25
				25:[AREA_REALTIME_CUSTOM_TIME<2788.59] yes=51,no=52,missing=51
					51:leaf=18.6491
					52:leaf=-76.1885
				26:[AREA_REALTIME_ORDER<345] yes=53,no=54,missing=53
					53:leaf=35.5929
					54:leaf=188.37
		6:[SHOP_REALTIME_NET_INFLOW<-2.5] yes=13,no=14,missing=13
			13:[SHOP_DISTIDX_CUSTOM_TIME<1643.21] yes=27,no=28,missing=27
				27:[AREA_REALTIME_TOSHOP_AVGLOAD<2.40975] yes=55,no=56,missing=55
					55:leaf=2.74672
					56:leaf=131.348
				28:[SHOP_LEAVE_TIME<722.775] yes=57,no=58,missing=57
					57:leaf=211.802
					58:leaf=55.9505
			14:[SHOP_DISTIDX_CUSTOM_TIME<1874.2] yes=29,no=30,missing=29
				29:[SHOP_REALTIME_OVERSTOCK<20.5] yes=59,no=60,missing=59
					59:leaf=45.2574
					60:leaf=79.4708
				30:[ORDER_TIMEIDX<127.5] yes=61,no=62,missing=61
					61:leaf=532.765
					62:leaf=118.51
booster[11]:
0:[ORDER_TIMEIDX<137.5] yes=1,no=2,missing=1
	1:[AREA_REALTIME_TOCUSTOM_AVGLOAD<1.30817] yes=3,no=4,missing=3
		3:[SHOP_TIMEIDX_INORDER<2.05556] yes=7,no=8,missing=7
			7:[SHOP_LEAVE_TIME<579.075] yes=15,no=16,missing=15
				15:[AREA_TIMEIDX_TOCUSTOM_AVGLOAD<1.23997] yes=31,no=32,missing=31
					31:leaf=9.6537
					32:leaf=-0.935039
				16:[SHOP_REALTIME_OVERSTOCK<4.5] yes=33,no=34,missing=33
					33:leaf=16.3137
					34:leaf=45.0488
			8:[SHOP_DISTIDX_CUSTOM_TIME<1976.41] yes=17,no=18,missing=17
				17:[SHOP_REALTIME_OVERSTOCK<33] yes=35,no=36,missing=35
					35:leaf=-7.41946
					36:leaf=142.509
				18:[AREA_TIMEIDX_CUSTOM_TIME<1237.68] yes=37,no=38,missing=37
					37:leaf=476.332
					38:leaf=51.105
		4:[ORDER_TIMEIDX<129.5] yes=9,no=10,missing=9
			9:[AREA_REALTIME_RIDER<129.5] yes=19,no=20,missing=19
				19:[SHOP_REALTIME_OVERSTOCK<8.5] yes=39,no=40,missing=39
					39:leaf=11.7607
					40:leaf=160.203
				20:[ORDER_TIMEIDX<127.5] yes=41,no=42,missing=41
					41:leaf=243.15
					42:leaf=73.9676
			10:[AREA_REALTIME_TOSHOP_AVGLOAD<1.93059] yes=21,no=22,missing=21
				21:[AREA_TIMEIDX_TOCUSTOM_AVGLOAD<1.72413] yes=43,no=44,missing=43
					43:leaf=27.4054
					44:leaf=6.55767
				22:[AREA_DISTIDX_ARRIVAL_TIME<293.409] yes=45,no=46,missing=45
					45:leaf=91.6262
					46:leaf=39.5735
	2:[ORDER_TIMEIDX<196.5] yes=5,no=6,missing=5
		5:[SHOP_AVG_DIST<1289.32] yes=11,no=12,missing=11
			11:[AREA_LEAVE_TIME<568.907] yes=23,no=24,missing=23
				23:[SHOP_LEAVE_TIME<604.355] yes=47,no=48,missing=47
					47:leaf=1.04836
					48:leaf=16.4851
				24:[SHOP_REALTIME_LEAVE_TIME<839.8] yes=49,no=50,missing=49
					49:leaf=-6.46732
					50:leaf=8.32063
			12:[AREA_ARRIVAL_TIME<254.583] yes=25,no=26,missing=25
				25:[SHOP_AVG_ORDER<349.556] yes=51,no=52,missing=51
					51:leaf=-6.13076
					52:leaf=-32.8525
				26:[SHOP_AVG_ORDER<212.278] yes=53,no=54,missing=53
					53:leaf=-17.0272
					54:leaf=-34.2477
		6:[AREA_REALTIME_ARRIVAL_TIME<338.748] yes=13,no=14,missing=13
			13:[ORDER_NAVI_DIST<963.5] yes=27,no=28,missing=27
				27:[SHOP_DISTIDX_CUSTOM_TIME<1116.05] yes=55,no=56,missing=55
					55:leaf=1.65799
					56:leaf=-13.3273
				28:[AREA_LEAVE_TIME<596.418] yes=57,no=58,missing=57
					57:leaf=15.3416
					58:leaf=4.46503
			14:[ORDER_TIMEIDX<214.5] yes=29,no=30,missing=29
				29:[ORDER_WEEKDAY<2.5] yes=59,no=60,missing=59
					59:leaf=71.7579
					60:leaf=22.437
				30:[ORDER_NAVI_DIST<1421.5] yes=61,no=62,missing=61
					61:leaf=6.76837
					62:leaf=20.6161
booster[12]:
0:[ORDER_NAVI_DIST<2029.5] yes=1,no=2,missing=1
	1:[SHOP_TIMEIDX_LEAVE_TIME<829.902] yes=3,no=4,missing=3
		3:[AREA_ARRIVAL_TIME<299.539] yes=7,no=8,missing=7
			7:[SHOP_AVG_DIST<1320.08] yes=15,no=16,missing=15
				15:[ORDER_DIST<300.111] yes=31,no=32,missing=31
					31:leaf=-4.41956
					32:leaf=4.38855
				16:[SHOP_AVG_ORDER<199.611] yes=33,no=34,missing=33
					33:leaf=-4.17509
					34:leaf=-16.0541
			8:[SHOP_ARRIVAL_TIME<253.13] yes=17,no=18,missing=17
				17:[SHOP_CUSTOM_TIME<1423.67] yes=35,no=36,missing=35
					35:leaf=3.16062
					36:leaf=64.1477
				18:[ORDER_TIMEIDX<135.5] yes=37,no=38,missing=37
					37:leaf=-2.46871
					38:leaf=-22.4213
		4:[SHOP_REALTIME_NET_INFLOW<0.5] yes=9,no=10,missing=9
			9:[SHOP_TIMEIDX_OVERSTOCK<6.11806] yes=19,no=20,missing=19
				19:[SHOP_REALTIME_LEAVE_TIME<1383.5] yes=39,no=40,missing=39
					39:leaf=7.24251
					40:leaf=44.9595
				20:[SHOP_REALTIME_LEAVE_TIME<979.25] yes=41,no=42,missing=41
					41:leaf=-16.1955
					42:leaf=12.2911
			10:[SHOP_LEAVE_TIME<1067.44] yes=21,no=22,missing=21
				21:[SHOP_CUSTOM_TIME<1582.12] yes=43,no=44,missing=43
					43:leaf=18.9151
					44:leaf=-36.8023
				22:[SHOP_DISTIDX_CUSTOM_TIME<1110.13] yes=45,no=46,missing=45
					45:leaf=839.158
					46:leaf=48.826
	2:[SHOP_REALTIME_OVERSTOCK<9.5] yes=5,no=6,missing=5
		5:[SHOP_REALTIME_CUSTOM_TIME<12.5] yes=11,no=12,missing=11
			11:[AREA_TIMEIDX_ORDER<49.6111] yes=23,no=24,missing=23
				23:[ORDER_TIMEIDX<128.5] yes=47,no=48,missing=47
					47:leaf=17.7771
					48:leaf=4.23225
				24:[SHOP_LEAVE_TIME<630.827] yes=49,no=50,missing=49
					49:leaf=11.0825
					50:leaf=25.04
			12:[SHOP_REALTIME_CUSTOM_TIME<818.292] yes=25,no=26,missing=25
				25:[AREA_TIMEIDX_TOSHOP_AVGLOAD<1.11105] yes=51,no=52,missing=51
					51:leaf=-3.59036
					52:leaf=-13.4917
				26:[ORDER_TIMEIDX<183.5] yes=53,no=54,missing=53
					53:leaf=3.19088
					54:leaf=14.9866
		6:[SHOP_AVG_ORDER<159.556] yes=13,no=14,missing=13
			13:[SHOP_CUSTOM_TIME<1516.89] yes=27,no=28,missing=27
				27:[ORDER_TIMEIDX<131.5] yes=55,no=56,missing=55
					55:leaf=78.0419
					56:leaf=33.6792
				28:[SHOP_REALTIME_AVG_DIST<1349.46] yes=57,no=58,missing=57
					57:leaf=53.2906
					58:leaf=171.174
			14:[ORDER_TIMEIDX<127.5] yes=29,no=30,missing=29
				29:[AREA_REALTIME_RIDER<288] yes=59,no=60,missing=59
					59:leaf=30.581
					60:leaf=223.93
				30:[ORDER_TIMEIDX<194.5] yes=61,no=62,missing=61
					61:leaf=7.36436
					62:leaf=30.1445
booster[13]:
0:[SHOP_REALTIME_NET_INFLOW<0.5] yes=1,no=2,missing=1
	1:[SHOP_AVG_ORDER<11.5278] yes=3,no=4,missing=3
		3:[SHOP_LEAVE_TIME<632.429] yes=7,no=8,missing=7
			7:[SHOP_REALTIME_LEAVE_TIME<581.25] yes=15,no=16,missing=15
				15:[SHOP_REALTIME_LEAVE_TIME<9.5] yes=31,no=32,missing=31
					31:leaf=5.32807
					32:leaf=-12.004
				16:[SHOP_AVG_ORDER<2.59028] yes=33,no=34,missing=33
					33:leaf=48.1541
					34:leaf=12.5215
			8:[SHOP_DISTIDX_CUSTOM_TIME<-499920] yes=17,no=18,missing=17
				17:[SHOP_LEAVE_TIME<974.15] yes=35,no=36,missing=35
					35:leaf=35.0826
					36:leaf=106.899
				18:[SHOP_DISTIDX_CUSTOM_TIME<1316.46] yes=37,no=38,missing=37
					37:leaf=21.6524
					38:leaf=8.87837
		4:[SHOP_LEAVE_TIME<381.502] yes=9,no=10,missing=9
			9:[AREA_LEAVE_TIME<559.753] yes=19,no=20,missing=19
				19:[AREA_REALTIME_ORDER<124.5] yes=39,no=40,missing=39
					39:leaf=-3.96218
					40:leaf=106.012
				20:[SHOP_DISTIDX_CUSTOM_TIME<1066.91] yes=41,no=42,missing=41
					41:leaf=-11.9457
					42:leaf=-29.0726
			10:[AREA_LEAVE_TIME<568.907] yes=21,no=22,missing=21
				21:[SHOP_ARRIVAL_TIME<289.068] yes=43,no=44,missing=43
					43:leaf=4.8936
					44:leaf=15.7974
				22:[ORDER_NAVI_DIST<2820.5] yes=45,no=46,missing=45
					45:leaf=-2.23701
					46:leaf=7.01449
	2:[SHOP_LEAVE_TIME<655.454] yes=5,no=6,missing=5
		5:[SHOP_REALTIME_CUSTOM_TIME<1035.88] yes=11,no=12,missing=11
			11:[SHOP_REALTIME_ARRIVAL_TIME<2.5] yes=23,no=24,missing=23
				23:[SHOP_REALTIME_OVERSTOCK<1.5] yes=47,no=48,missing=47
					47:leaf=6.69928
					48:leaf=18.935
				24:[SHOP_REALTIME_ARRIVAL_TIME<133.708] yes=49,no=50,missing=49
					49:leaf=-5.39858
					50:leaf=8.92548
			12:[AREA_REALTIME_CUSTOM_TIME<1266.11] yes=25,no=26,missing=25
				25:[SHOP_REALTIME_OVERSTOCK<8.5] yes=51,no=52,missing=51
					51:leaf=17.4535
					52:leaf=38.772
				26:[ORDER_TIMEIDX<138.5] yes=53,no=54,missing=53
					53:leaf=18.6839
					54:leaf=-10.7719
		6:[SHOP_LEAVE_TIME<1225.31] yes=13,no=14,missing=13
			13:[ORDER_WEEKDAY<3.5] yes=27,no=28,missing=27
				27:[ORDER_TIMEIDX<129.5] yes=55,no=56,missing=55
					55:leaf=48.4824
					56:leaf=17.4171
				28:[SHOP_AVG_ORDER<87.9444] yes=57,no=58,missing=57
					57:leaf=13.0206
					58:leaf=-1.10216
			14:[AREA_REALTIME_ORDER<166.5] yes=29,no=30,missing=29
				29:[ORDER_NAVI_DIST<763] yes=59,no=60,missing=59
					59:leaf=10.5419
					60:leaf=82.1027
				30:[ORDER_NAVI_DIST<803] yes=61,no=62,missing=61
					61:leaf=-172.587
					62:leaf=240.379
booster[14]:
0:[ORDER_NAVI_DIST<3453.5] yes=1,no=2,missing=1
	1:[SHOP_REALTIME_CUSTOM_TIME<1245.9] yes=3,no=4,missing=3
		3:[SHOP_REALTIME_CUSTOM_TIME<20.125] yes=7,no=8,missing=7
			7:[SHOP_REALTIME_OVERSTOCK<3.5] yes=15,no=16,missing=15
				15:[SHOP_AVG_DIST<855.35] yes=31,no=32,missing=31
					31:leaf=8.42732
					32:leaf=0.772741
				16:[SHOP_LEAVE_TIME<1215.63] yes=33,no=34,missing=33
					33:leaf=15.8897
					34:leaf=89.5625
			8:[SHOP_REALTIME_CUSTOM_TIME<749.611] yes=17,no=18,missing=17
				17:[SHOP_CUSTOM_TIME<1019.69] yes=35,no=36,missing=35
					35:leaf=-7.66095
					36:leaf=-17.7243
				18:[SHOP_CUSTOM_TIME<1148.95] yes=37,no=38,missing=37
					37:leaf=3.44439
					38:leaf=-7.35864
		4:[AREA_REALTIME_CUSTOM_TIME<1675.3] yes=9,no=10,missing=9
			9:[SHOP_DISTIDX_CUSTOM_TIME<208.083] yes=19,no=20,missing=19
				19:[AREA_REALTIME_CUSTOM_TIME<1332.32] yes=39,no=40,missing=39
					39:leaf=68.035
					40:leaf=-15.0677
				20:[SHOP_REALTIME_OVERSTOCK<16.5] yes=41,no=42,missing=41
					41:leaf=11.3729
					42:leaf=31.9761
			10:[AREA_DISTIDX_TIMEIDX_LEAVE_TIME<653.666] yes=21,no=22,missing=21
				21:[AREA_REALTIME_CUSTOM_TIME<2868.36] yes=43,no=44,missing=43
					43:leaf=-20.5311
					44:leaf=-92.0472
				22:[ORDER_NAVI_DIST<355.5] yes=45,no=46,missing=45
					45:leaf=-37.1162
					46:leaf=3.06697
	2:[AREA_REALTIME_LEAVESHOP_AVGLOAD<2.0144] yes=5,no=6,missing=5
		5:[SHOP_AVG_DIST<822.936] yes=11,no=12,missing=11
			11:[SHOP_DISTIDX_CUSTOM_TIME<1177.65] yes=23,no=24,missing=23
				23:[AREA_REALTIME_LEAVE_TIME<673.974] yes=47,no=48,missing=47
					47:leaf=45.5999
					48:leaf=88.4785
				24:[AREA_REALTIME_LEAVESHOP_AVGLOAD<1.93598] yes=49,no=50,missing=49
					49:leaf=20.9208
					50:leaf=311.467
			12:[AREA_AVG_DIST<1157.56] yes=25,no=26,missing=25
				25:[SHOP_AVG_DIST<1340.64] yes=51,no=52,missing=51
					51:leaf=11.6664
					52:leaf=-9.81364
				26:[AREA_REALTIME_LEAVESHOP_AVGLOAD<1.22653] yes=53,no=54,missing=53
					53:leaf=15.9433
					54:leaf=44.3219
		6:[SHOP_REALTIME_AVG_DIST<2313.99] yes=13,no=14,missing=13
			13:[AREA_TIMEIDX_ORDER<25.6667] yes=27,no=28,missing=27
				27:[AREA_DISTIDX_TIMEIDX_CUSTOM_TIME<1861.47] yes=55,no=56,missing=55
					55:leaf=-150.923
					56:leaf=-21.661
				28:[SHOP_TIMEIDX_NET_INFLOW<-0.154762] yes=57,no=58,missing=57
					57:leaf=26.7449
					58:leaf=110.218
			14:[SHOP_TIMEIDX_ARRIVAL_TIME<314.588] yes=29,no=30,missing=29
				29:[SHOP_DISTIDX_CUSTOM_TIME<1260.68] yes=59,no=60,missing=59
					59:leaf=251.729
					60:leaf=709.781
				30:[SHOP_TIMEIDX_CUSTOM_TIME<1576.51] yes=61,no=62,missing=61
					61:leaf=-66.467
					62:leaf=237.104
booster[15]:
0:[ORDER_WEEKDAY<3.5] yes=1,no=2,missing=1
	1:[ORDER_TIMEIDX<132.5] yes=3,no=4,missing=3
		3:[ORDER_WEEKDAY<2.5] yes=7,no=8,missing=7
			7:[SHOP_TIMEIDX_OVERSTOCK<3.84524] yes=15,no=16,missing=15
				15:[AREA_REALTIME_LEAVESHOP_AVGLOAD<1.40339] yes=31,no=32,missing=31
					31:leaf=3.8238
					32:leaf=-68.6931
				16:[SHOP_REALTIME_ARRIVAL_TIME<249.75] yes=33,no=34,missing=33
					33:leaf=-21.5074
					34:leaf=0.648192
			8:[ORDER_TIMEIDX<124.5] yes=17,no=18,missing=17
				17:[SHOP_DISTIDX_CUSTOM_TIME<2037.05] yes=35,no=36,missing=35
					35:leaf=8.73665
					36:leaf=195.807
				18:[ORDER_TIMEIDX<128.5] yes=37,no=38,missing=37
					37:leaf=82.636
					38:leaf=27.0567
		4:[ORDER_TIMEIDX<186.5] yes=9,no=10,missing=9
			9:[AREA_REALTIME_LEAVESHOP_AVGLOAD<1.94518] yes=19,no=20,missing=19
				19:[AREA_DISTIDX_ARRIVAL_TIME<250.583] yes=39,no=40,missing=39
					39:leaf=0.0145472
					40:leaf=-8.91173
				20:[AREA_REALTIME_AVG_DIST<1330.99] yes=41,no=42,missing=41
					41:leaf=20.3207
					42:leaf=-11.8662
			10:[AREA_TIMEIDX_ORDER<100.611] yes=21,no=22,missing=21
				21:[ORDER_WEEKDAY<2.5] yes=43,no=44,missing=43
					43:leaf=7.50408
					44:leaf=-0.486465
				22:[AREA_REALTIME_LEAVESHOP_ORDER<164.5] yes=45,no=46,missing=45
					45:leaf=-13.0979
					46:leaf=30.4068
	2:[AREA_AVG_RIDER<435.667] yes=5,no=6,missing=5
		5:[ORDER_TIMEIDX<175.5] yes=11,no=12,missing=11
			11:[ORDER_TIMEIDX<136.5] yes=23,no=24,missing=23
				23:[AREA_TIMEIDX_CUSTOM_TIME<1442.88] yes=47,no=48,missing=47
					47:leaf=-5.95614
					48:leaf=12.6295
				24:[SHOP_DISTIDX_CUSTOM_TIME<885.301] yes=49,no=50,missing=49
					49:leaf=-7.50249
					50:leaf=-18.2987
			12:[SHOP_ARRIVAL_TIME<400.159] yes=25,no=26,missing=25
				25:[SHOP_CUSTOM_TIME<1616.98] yes=51,no=52,missing=51
					51:leaf=-0.87344
					52:leaf=-40.2938
				26:[AREA_AVG_DIST<1034.68] yes=53,no=54,missing=53
					53:leaf=-51.3553
					54:leaf=-11.8243
		6:[AREA_AVG_DIST<1145.75] yes=13,no=14,missing=13
			13:[SHOP_AVG_DIST<150.777] yes=27,no=28,missing=27
				27:[SHOP_REALTIME_OVERSTOCK<8.5] yes=55,no=56,missing=55
					55:leaf=40.7979
					56:leaf=152.614
				28:[SHOP_TIMEIDX_LEAVE_TIME<1032.2] yes=57,no=58,missing=57
					57:leaf=3.73654
					58:leaf=23.0868
			14:[ORDER_WEEKDAY<4.5] yes=29,no=30,missing=29
				29:[SHOP_CUSTOM_TIME<1525.51] yes=59,no=60,missing=59
					59:leaf=-5.87484
					60:leaf=-28.8975
				30:[SHOP_LEAVE_TIME<1176.14] yes=61,no=62,missing=61
					61:leaf=0.265793
					62:leaf=66.6284
booster[16]:
0:[ORDER_NAVI_DIST<483.5] yes=1,no=2,missing=1
	1:[SHOP_DISTIDX_CUSTOM_TIME<1137.15] yes=3,no=4,missing=3
		3:[SHOP_LEAVE_TIME<1082.8] yes=7,no=8,missing=7
			7:[ORDER_TIMEIDX<277.5] yes=15,no=16,missing=15
				15:[ORDER_DIST<69.9067] yes=31,no=32,missing=31
					31:leaf=-11.8673
					32:leaf=-2.36317
				16:[SHOP_DISTIDX_CUSTOM_TIME<1101.23] yes=33,no=34,missing=33
					33:leaf=-32.8815
					34:leaf=-112.496
			8:[SHOP_REALTIME_AVG_DIST<1650.95] yes=17,no=18,missing=17
				17:[AREA_TIMEIDX_ARRIVAL_TIME<247.086] yes=35,no=36,missing=35
					35:leaf=5.37155
					36:leaf=126.4
				18:[SHOP_ARRIVAL_TIME<320.938] yes=37,no=38,missing=37
					37:leaf=6625.15
					38:leaf=20.9265
		4:[AREA_REALTIME_LEAVESHOP_AVGLOAD<1.81322] yes=9,no=10,missing=9
			9:[ORDER_NAVI_DIST<76.5] yes=19,no=20,missing=19
				19:[AREA_TIMEIDX_TOSHOP_ORDER<16.7222] yes=39,no=40,missing=39
					39:leaf=-146.74
					40:leaf=-61.5096
				20:[SHOP_LEAVE_TIME<815.498] yes=41,no=42,missing=41
					41:leaf=-65.0049
					42:leaf=-23.3408
			10:[AREA_REALTIME_AVG_DIST<1272.48] yes=21,no=22,missing=21
				21:[SHOP_ARRIVAL_TIME<476.679] yes=43,no=44,missing=43
					43:leaf=-123.16
					44:leaf=26.3208
				22:[AREA_ARRIVAL_TIME<243.433] yes=45,no=46,missing=45
					45:leaf=78.6367
					46:leaf=-260.117
	2:[SHOP_REALTIME_LEAVE_TIME<1023.17] yes=5,no=6,missing=5
		5:[SHOP_AVG_DIST<1134.38] yes=11,no=12,missing=11
			11:[AREA_AVG_RIDER<149.667] yes=23,no=24,missing=23
				23:[AREA_REALTIME_ORDER<37.5] yes=47,no=48,missing=47
					47:leaf=-4.45063
					48:leaf=28.0459
				24:[SHOP_LEAVE_TIME<409.129] yes=49,no=50,missing=49
					49:leaf=-0.696383
					50:leaf=7.20708
			12:[SHOP_REALTIME_NET_INFLOW<1.5] yes=25,no=26,missing=25
				25:[SHOP_AVG_ORDER<172] yes=51,no=52,missing=51
					51:leaf=-0.877434
					52:leaf=-8.24065
				26:[SHOP_REALTIME_ARRIVAL_TIME<2.5] yes=53,no=54,missing=53
					53:leaf=21.6674
					54:leaf=4.83642
		6:[SHOP_REALTIME_NET_INFLOW<-0.5] yes=13,no=14,missing=13
			13:[AREA_TIMEIDX_ORDER<101.5] yes=27,no=28,missing=27
				27:[ORDER_TIMEIDX<177.5] yes=55,no=56,missing=55
					55:leaf=-3.9085
					56:leaf=14.9475
				28:[AREA_REALTIME_AVG_DIST<1243.89] yes=57,no=58,missing=57
					57:leaf=14.172
					58:leaf=48.8842
			14:[ORDER_DIST<2993.21] yes=29,no=30,missing=29
				29:[SHOP_TIMEIDX_LEAVE_TIME<1506.95] yes=59,no=60,missing=59
					59:leaf=22.4588
					60:leaf=79.9071
				30:leaf=763.625
booster[17]:
0:[SHOP_TIMEIDX_LEAVE_TIME<633.672] yes=1,no=2,missing=1
	1:[SHOP_TIMEIDX_CUSTOM_TIME<33.6667] yes=3,no=4,missing=3
		3:[AREA_TIMEIDX_ORDER<62.7222] yes=7,no=8,missing=7
			7:[ORDER_TIMEIDX<139.5] yes=15,no=16,missing=15
				15:[AREA_REALTIME_TOSHOP_ORDER<129.5] yes=31,no=32,missing=31
					31:leaf=7.42011
					32:leaf=72.6072
				16:[ORDER_TIMEIDX<190.5] yes=33,no=34,missing=33
					33:leaf=-6.44301
					34:leaf=2.17718
			8:[AREA_REALTIME_ORDER<282.5] yes=17,no=18,missing=17
				17:[ORDER_NAVI_DIST<196.5] yes=35,no=36,missing=35
					35:leaf=-10.5781
					36:leaf=12.3084
				18:[AREA_REALTIME_DISTIDX_ARRIVAL_TIME<189.513] yes=37,no=38,missing=37
					37:leaf=484.859
					38:leaf=46.3132
		4:[SHOP_CUSTOM_TIME<1339.07] yes=9,no=10,missing=9
			9:[SHOP_REALTIME_ARRIVAL_TIME<235.083] yes=19,no=20,missing=19
				19:[SHOP_LEAVE_TIME<357.684] yes=39,no=40,missing=39
					39:leaf=-10.6261
					40:leaf=-2.09333
				20:[AREA_REALTIME_CUSTOM_TIME<1372.25] yes=41,no=42,missing=41
					41:leaf=6.5155
					42:leaf=-15.3463
			10:[SHOP_AVG_ORDER<71.375] yes=21,no=22,missing=21
				21:[AREA_DISTIDX_TIMEIDX_CUSTOM_TIME<1286.83] yes=43,no=44,missing=43
					43:leaf=-15.3335
					44:leaf=6.45341
				22:[SHOP_CUSTOM_TIME<1425.89] yes=45,no=46,missing=45
					45:leaf=-15.5378
					46:leaf=-33.0358
	2:[ORDER_TIMEIDX<128.5] yes=5,no=6,missing=5
		5:[AREA_REALTIME_ORDER<165.5] yes=11,no=12,missing=11
			11:[AREA_REALTIME_AVG_DIST<1361.78] yes=23,no=24,missing=23
				23:[SHOP_TIMEIDX_OVERSTOCK<11.9792] yes=47,no=48,missing=47
					47:leaf=8.42248
					48:leaf=-58.1045
				24:[AREA_REALTIME_TOCUSTOM_AVGLOAD<1.22018] yes=49,no=50,missing=49
					49:leaf=14.8095
					50:leaf=88.1891
			12:[AREA_TIMEIDX_ORDER<118.5] yes=25,no=26,missing=25
				25:[ORDER_DIST<2216.94] yes=51,no=52,missing=51
					51:leaf=295.679
					52:leaf=-1.64419
				26:[SHOP_LEAVE_TIME<850.12] yes=53,no=54,missing=53
					53:leaf=5.84068
					54:leaf=147.205
		6:[ORDER_TIMEIDX<172.5] yes=13,no=14,missing=13
			13:[ORDER_TIMEIDX<140.5] yes=27,no=28,missing=27
				27:[ORDER_WEEKDAY<1.5] yes=55,no=56,missing=55
					55:leaf=-5.77204
					56:leaf=6.00754
				28:[ORDER_WEEKDAY<2.5] yes=57,no=58,missing=57
					57:leaf=0.383609
					58:leaf=-10.5357
			14:[AREA_REALTIME_TOSHOP_ORDER<109.5] yes=29,no=30,missing=29
				29:[SHOP_AVG_ORDER<20.5] yes=59,no=60,missing=59
					59:leaf=15.9351
					60:leaf=2.23137
				30:[ORDER_WEEKDAY<2.5] yes=61,no=62,missing=61
					61:leaf=35.5314
					62:leaf=8.27581
booster[18]:
0:[ORDER_NAVI_DIST<3835.5] yes=1,no=2,missing=1
	1:[AREA_LEAVE_TIME<568.907] yes=3,no=4,missing=3
		3:[ORDER_NAVI_DIST<838.5] yes=7,no=8,missing=7
			7:[ORDER_NAVI_DIST<79.5] yes=15,no=16,missing=15
				15:[AREA_REALTIME_LEAVESHOP_AVGLOAD<1.4941] yes=31,no=32,missing=31
					31:leaf=-14.3332
					32:leaf=-78.8406
				16:[SHOP_LEAVE_TIME<409.392] yes=33,no=34,missing=33
					33:leaf=-8.98816
					34:leaf=1.16286
			8:[SHOP_AVG_DIST<753.721] yes=17,no=18,missing=17
				17:[SHOP_REALTIME_ARRIVAL_TIME<266.5] yes=35,no=36,missing=35
					35:leaf=20.8945
					36:leaf=54.9338
				18:[SHOP_CUSTOM_TIME<1242.12] yes=37,no=38,missing=37
					37:leaf=3.7452
					38:leaf=16.7409
		4:[AREA_ARRIVAL_TIME<252.282] yes=9,no=10,missing=9
			9:[SHOP_LEAVE_TIME<429.232] yes=19,no=20,missing=19
				19:[SHOP_AVG_DIST<1457] yes=39,no=40,missing=39
					39:leaf=-6.81727
					40:leaf=20.7209
				20:[SHOP_AVG_ORDER<97.8333] yes=41,no=42,missing=41
					41:leaf=4.34481
					42:leaf=-2.55899
			10:[SHOP_AVG_DIST<1386.22] yes=21,no=22,missing=21
				21:[SHOP_LEAVE_TIME<1073.27] yes=43,no=44,missing=43
					43:leaf=-2.61769
					44:leaf=34.7353
				22:[SHOP_REALTIME_OVERSTOCK<20.5] yes=45,no=46,missing=45
					45:leaf=-14.1255
					46:leaf=51.3445
	2:[ORDER_NAVI_DIST<4683] yes=5,no=6,missing=5
		5:[AREA_TIMEIDX_CUSTOM_TIME<1817.13] yes=11,no=12,missing=11
			11:[ORDER_TIMEIDX<177.5] yes=23,no=24,missing=23
				23:[ORDER_TIMEIDX<128.5] yes=47,no=48,missing=47
					47:leaf=21.5154
					48:leaf=0.296498
				24:[AREA_TIMEIDX_RIDER<330.5] yes=49,no=50,missing=49
					49:leaf=15.1222
					50:leaf=46.6962
			12:[ORDER_DIST<2661.38] yes=25,no=26,missing=25
				25:[SHOP_REALTIME_CUSTOM_TIME<1522] yes=51,no=52,missing=51
					51:leaf=101.626
					52:leaf=-48.8197
				26:[ORDER_DIST<2881.26] yes=53,no=54,missing=53
					53:leaf=-62.9434
					54:leaf=118.442
		6:[SHOP_REALTIME_LEAVE_TIME<1677.75] yes=13,no=14,missing=13
			13:[AREA_REALTIME_LEAVESHOP_AVGLOAD<1.30243] yes=27,no=28,missing=27
				27:[SHOP_DISTIDX_CUSTOM_TIME<1209.51] yes=55,no=56,missing=55
					55:leaf=79.7069
					56:leaf=35.0233
				28:[AREA_REALTIME_LEAVESHOP_ORDER<804] yes=57,no=58,missing=57
					57:leaf=-35.5275
					58:leaf=157.609
			14:[SHOP_TIMEIDX_ARRIVAL_TIME<123.078] yes=29,no=30,missing=29
				29:leaf=646.86
				30:[SHOP_TIMEIDX_ARRIVAL_TIME<303.241] yes=59,no=60,missing=59
					59:leaf=-33.0649
					60:leaf=207.583
booster[19]:
0:[SHOP_REALTIME_OVERSTOCK<3.5] yes=1,no=2,missing=1
	1:[SHOP_REALTIME_LEAVE_TIME<13.1667] yes=3,no=4,missing=3
		3:[SHOP_REALTIME_OVERSTOCK<1.5] yes=7,no=8,missing=7
			7:[AREA_AVG_RIDER<130.556] yes=15,no=16,missing=15
				15:[SHOP_DISTIDX_CUSTOM_TIME<1293.9] yes=31,no=32,missing=31
					31:leaf=-5.35794
					32:leaf=-24.7677
				16:[SHOP_AVG_DIST<1065.61] yes=33,no=34,missing=33
					33:leaf=3.40915
					34:leaf=-2.24273
			8:[SHOP_REALTIME_ARRIVAL_TIME<1.5] yes=17,no=18,missing=17
				17:[SHOP_LEAVE_TIME<1573.78] yes=35,no=36,missing=35
					35:leaf=13.9137
					36:leaf=204.349
				18:[SHOP_REALTIME_ARRIVAL_TIME<426.25] yes=37,no=38,missing=37
					37:leaf=0.791483
					38:leaf=16.7567
		4:[SHOP_REALTIME_LEAVE_TIME<517.75] yes=9,no=10,missing=9
			9:[SHOP_CUSTOM_TIME<1017.83] yes=19,no=20,missing=19
				19:[SHOP_LEAVE_TIME<216.164] yes=39,no=40,missing=39
					39:leaf=-27.7512
					40:leaf=-3.9397
				20:[ORDER_NAVI_DIST<2166.5] yes=41,no=42,missing=41
					41:leaf=-17.0253
					42:leaf=-9.15677
			10:[AREA_AVG_RIDER<435.667] yes=21,no=22,missing=21
				21:[SHOP_DISTIDX_CUSTOM_TIME<1095.61] yes=43,no=44,missing=43
					43:leaf=-0.175158
					44:leaf=-9.72446
				22:[AREA_REALTIME_LEAVESHOP_AVGLOAD<2.16131] yes=45,no=46,missing=45
					45:leaf=2.88724
					46:leaf=92.4394
	2:[SHOP_AVG_ORDER<122.722] yes=5,no=6,missing=5
		5:[ORDER_WEEKDAY<3.5] yes=11,no=12,missing=11
			11:[ORDER_TIMEIDX<128.5] yes=23,no=24,missing=23
				23:[ORDER_WEEKDAY<2.5] yes=47,no=48,missing=47
					47:leaf=16.283
					48:leaf=66.2875
				24:[AREA_REALTIME_CUSTOM_TIME<1448.09] yes=49,no=50,missing=49
					49:leaf=14.3854
					50:leaf=-1.48672
			12:[AREA_REALTIME_TOCUSTOM_AVGLOAD<1.9125] yes=25,no=26,missing=25
				25:[SHOP_TIMEIDX_OVERSTOCK<13.75] yes=51,no=52,missing=51
					51:leaf=4.06468
					52:leaf=-62.1601
				26:[SHOP_TIMEIDX_CUSTOM_TIME<1331.44] yes=53,no=54,missing=53
					53:leaf=-50.1041
					54:leaf=-2.30814
		6:[SHOP_REALTIME_OVERSTOCK<25.5] yes=13,no=14,missing=13
			13:[SHOP_CUSTOM_TIME<1276.25] yes=27,no=28,missing=27
				27:[SHOP_ARRIVAL_TIME<312.785] yes=55,no=56,missing=55
					55:leaf=-0.559816
					56:leaf=17.9555
				28:[AREA_LEAVE_TIME<559.1] yes=57,no=58,missing=57
					57:leaf=61.9834
					58:leaf=-10.5413
			14:[AREA_TIMEIDX_TOSHOP_AVGLOAD<1.11588] yes=29,no=30,missing=29
				29:[AREA_REALTIME_TOSHOP_ORDER<233.5] yes=59,no=60,missing=59
					59:leaf=97.674
					60:leaf=240.842
				30:[SHOP_CUSTOM_TIME<819.93] yes=61,no=62,missing=61
					61:leaf=102.532
					62:leaf=10.5654
booster[20]:
0:[ORDER_NAVI_DIST<1467.5] yes=1,no=2,missing=1
	1:[SHOP_DISTIDX_CUSTOM_TIME<1091.37] yes=3,no=4,missing=3
		3:[SHOP_LEAVE_TIME<825.45] yes=7,no=8,missing=7
			7:[SHOP_DISTIDX_CUSTOM_TIME<854.868] yes=15,no=16,missing=15
				15:[SHOP_LEAVE_TIME<381.502] yes=31,no=32,missing=31
					31:leaf=-5.59139
					32:leaf=3.4116
				16:[AREA_REALTIME_LEAVESHOP_AVGLOAD<1.59177] yes=33,no=34,missing=33
					33:leaf=-5.64687
					34:leaf=19.1778
			8:[SHOP_REALTIME_AVG_DIST<2443.03] yes=17,no=18,missing=17
				17:[ORDER_NAVI_DIST<480.5] yes=35,no=36,missing=35
					35:leaf=6.74777
					36:leaf=26.3052
				18:[SHOP_REALTIME_AVG_DIST<2446.5] yes=37,no=38,missing=37
					37:leaf=5876.57
					38:leaf=55.0049
		4:[SHOP_LEAVE_TIME<804.14] yes=9,no=10,missing=9
			9:[ORDER_NAVI_DIST<946.5] yes=19,no=20,missing=19
				19:[AREA_DISTIDX_CUSTOM_TIME<898.027] yes=39,no=40,missing=39
					39:leaf=-52.718
					40:leaf=-24.4225
				20:[SHOP_LEAVE_TIME<581.63] yes=41,no=42,missing=41
					41:leaf=-25.9184
					42:leaf=-8.54627
			10:[SHOP_AVG_ORDER<37.1806] yes=21,no=22,missing=21
				21:[SHOP_TIMEIDX_LEAVE_TIME<1365.8] yes=43,no=44,missing=43
					43:leaf=1.84007
					44:leaf=42.6252
				22:[ORDER_NAVI_DIST<856.5] yes=45,no=46,missing=45
					45:leaf=-20.7627
					46:leaf=-4.04779
	2:[SHOP_DISTIDX_CUSTOM_TIME<1088.05] yes=5,no=6,missing=5
		5:[SHOP_LEAVE_TIME<686.068] yes=11,no=12,missing=11
			11:[AREA_REALTIME_ORDER<206.5] yes=23,no=24,missing=23
				23:[SHOP_LEAVE_TIME<472.961] yes=47,no=48,missing=47
					47:leaf=1.72658
					48:leaf=8.20014
				24:[AREA_DISTIDX_ARRIVAL_TIME<212.653] yes=49,no=50,missing=49
					49:leaf=-67.2453
					50:leaf=36.9212
			12:[SHOP_LEAVE_TIME<974.15] yes=25,no=26,missing=25
				25:[AREA_DISTIDX_CUSTOM_TIME<1574.14] yes=51,no=52,missing=51
					51:leaf=29.2512
					52:leaf=115.721
				26:[SHOP_CUSTOM_TIME<2050] yes=53,no=54,missing=53
					53:leaf=92.7279
					54:leaf=-74.043
		6:[SHOP_LEAVE_TIME<393.593] yes=13,no=14,missing=13
			13:[SHOP_DISTIDX_CUSTOM_TIME<1398] yes=27,no=28,missing=27
				27:[ORDER_NAVI_DIST<2778.5] yes=55,no=56,missing=55
					55:leaf=-34.4005
					56:leaf=-13.3746
				28:[AREA_REALTIME_TOSHOP_ORDER<869] yes=57,no=58,missing=57
					57:leaf=-59.2334
					58:leaf=141.826
			14:[AREA_AVG_RIDER<212.556] yes=29,no=30,missing=29
				29:[SHOP_LEAVE_TIME<738.479] yes=59,no=60,missing=59
					59:leaf=-12.4885
					60:leaf=0.162978
				30:[SHOP_TIMEIDX_LEAVE_TIME<921.683] yes=61,no=62,missing=61
					61:leaf=0.576427
					62:leaf=9.12144
booster[21]:
0:[ORDER_TIMEIDX<184.5] yes=1,no=2,missing=1
	1:[ORDER_TIMEIDX<140.5] yes=3,no=4,missing=3
		3:[AREA_REALTIME_AVG_DIST<1300.44] yes=7,no=8,missing=7
			7:[SHOP_REALTIME_OVERSTOCK<25.5] yes=15,no=16,missing=15
				15:[AREA_REALTIME_LEAVESHOP_AVGLOAD<2.30373] yes=31,no=32,missing=31
					31:leaf=-0.714521
					32:leaf=24.0585
				16:[AREA_TIMEIDX_TOCUSTOM_AVGLOAD<1.40148] yes=33,no=34,missing=33
					33:leaf=152.522
					34:leaf=23.5906
			8:[AREA_REALTIME_ORDER<101.5] yes=17,no=18,missing=17
				17:[AREA_TIMEIDX_TOCUSTOM_ORDER<211.667] yes=35,no=36,missing=35
					35:leaf=6.28862
					36:leaf=-5.30015
				18:[ORDER_TIMEIDX<127.5] yes=37,no=38,missing=37
					37:leaf=97.8827
					38:leaf=13.3224
		4:[ORDER_WEEKDAY<2.5] yes=9,no=10,missing=9
			9:[SHOP_REALTIME_CUSTOM_TIME<1805.75] yes=19,no=20,missing=19
				19:[AREA_DISTIDX_ARRIVAL_TIME<304.382] yes=39,no=40,missing=39
					39:leaf=-0.891191
					40:leaf=-14.3926
				20:[AREA_LEAVE_TIME<553.074] yes=41,no=42,missing=41
					41:leaf=149.233
					42:leaf=27.6584
			10:[ORDER_TIMEIDX<167.5] yes=21,no=22,missing=21
				21:[SHOP_TIMEIDX_INORDER<2.64583] yes=43,no=44,missing=43
					43:leaf=-9.55256
					44:leaf=-22.8141
				22:[SHOP_TIMEIDX_OVERSTOCK<9.16667] yes=45,no=46,missing=45
					45:leaf=-2.42014
					46:leaf=106.372
	2:[AREA_REALTIME_ARRIVAL_TIME<230.187] yes=5,no=6,missing=5
		5:[ORDER_TIMEIDX<280.5] yes=11,no=12,missing=11
			11:[SHOP_ARRIVAL_TIME<324.272] yes=23,no=24,missing=23
				23:[ORDER_NAVI_DIST<2960.5] yes=47,no=48,missing=47
					47:leaf=-0.643491
					48:leaf=6.858
				24:[SHOP_LEAVE_TIME<1398.53] yes=49,no=50,missing=49
					49:leaf=-8.40329
					50:leaf=72.4572
			12:[ORDER_DIST<145.282] yes=25,no=26,missing=25
				25:[SHOP_DISTIDX_CUSTOM_TIME<898.098] yes=51,no=52,missing=51
					51:leaf=-26.1912
					52:leaf=-76.7937
				26:[SHOP_AVG_ORDER<26.6333] yes=53,no=54,missing=53
					53:leaf=-5.10089
					54:leaf=-18.9431
		6:[ORDER_WEEKDAY<2.5] yes=13,no=14,missing=13
			13:[AREA_REALTIME_ORDER<95.5] yes=27,no=28,missing=27
				27:[ORDER_WEEKDAY<1.5] yes=55,no=56,missing=55
					55:leaf=0.544647
					56:leaf=16.3144
				28:[ORDER_TIMEIDX<212.5] yes=57,no=58,missing=57
					57:leaf=108.463
					58:leaf=26.3303
			14:[SHOP_REALTIME_OVERSTOCK<11.5] yes=29,no=30,missing=29
				29:[ORDER_WEEKDAY<5.5] yes=59,no=60,missing=59
					59:leaf=0.355425
					60:leaf=7.95653
				30:[SHOP_REALTIME_CUSTOM_TIME<2703.92] yes=61,no=62,missing=61
					61:leaf=24.7811
					62:leaf=199.202
booster[22]:
0:[ORDER_DIST<97.9972] yes=1,no=2,missing=1
	1:[SHOP_DISTIDX_CUSTOM_TIME<875.093] yes=3,no=4,missing=3
		3:[AREA_REALTIME_LEAVESHOP_AVGLOAD<1.498] yes=7,no=8,missing=7
			7:[SHOP_ARRIVAL_TIME<223.529] yes=15,no=16,missing=15
				15:[ORDER_DIST<31.8299] yes=31,no=32,missing=31
					31:leaf=-17.9002
					32:leaf=-4.1071
				16:[SHOP_AVG_DIST<546.64] yes=33,no=34,missing=33
					33:leaf=33.647
					34:leaf=0.885769
			8:[SHOP_DISTIDX_CUSTOM_TIME<872.067] yes=17,no=18,missing=17
				17:[ORDER_NAVI_DIST<738.5] yes=35,no=36,missing=35
					35:leaf=-46.8018
					36:leaf=266.268
				18:[SHOP_ARRIVAL_TIME<444.632] yes=37,no=38,missing=37
					37:leaf=358.695
					38:leaf=-46.3568
		4:[SHOP_REALTIME_AVG_DIST<2438.26] yes=9,no=10,missing=9
			9:[AREA_REALTIME_LEAVESHOP_ORDER<1324] yes=19,no=20,missing=19
				19:[SHOP_DISTIDX_CUSTOM_TIME<1560.16] yes=39,no=40,missing=39
					39:leaf=-19.9403
					40:leaf=-93.7015
				20:[SHOP_ARRIVAL_TIME<293.825] yes=41,no=42,missing=41
					41:leaf=372.811
					42:leaf=1.76347
			10:[SHOP_REALTIME_AVG_DIST<2446.73] yes=21,no=22,missing=21
				21:leaf=4995.03
				22:[ORDER_DIST<17.0466] yes=43,no=44,missing=43
					43:leaf=-108.427
					44:leaf=-14.6416
	2:[SHOP_DISTIDX_CUSTOM_TIME<854.772] yes=5,no=6,missing=5
		5:[ORDER_DIST<389.85] yes=11,no=12,missing=11
			11:[SHOP_LEAVE_TIME<583.983] yes=23,no=24,missing=23
				23:[AREA_REALTIME_LEAVESHOP_AVGLOAD<1.45007] yes=45,no=46,missing=45
					45:leaf=-2.08383
					46:leaf=-23.6413
				24:[AREA_DISTIDX_TIMEIDX_CUSTOM_TIME<692.344] yes=47,no=48,missing=47
					47:leaf=-0.49056
					48:leaf=10.8551
			12:[SHOP_CUSTOM_TIME<912.493] yes=25,no=26,missing=25
				25:[SHOP_REALTIME_ARRIVAL_TIME<293.875] yes=49,no=50,missing=49
					49:leaf=3.05606
					50:leaf=15.0638
				26:[AREA_REALTIME_LEAVESHOP_AVGLOAD<2.20586] yes=51,no=52,missing=51
					51:leaf=12.0177
					52:leaf=101.371
		6:[SHOP_LEAVE_TIME<565.163] yes=13,no=14,missing=13
			13:[ORDER_DIST<680.184] yes=27,no=28,missing=27
				27:[SHOP_REALTIME_LEAVE_TIME<471.5] yes=53,no=54,missing=53
					53:leaf=-21.1738
					54:leaf=-3.46762
				28:[SHOP_DISTIDX_CUSTOM_TIME<1398.31] yes=55,no=56,missing=55
					55:leaf=-1.55732
					56:leaf=-17.7905
			14:[SHOP_AVG_ORDER<162.556] yes=29,no=30,missing=29
				29:[ORDER_NAVI_DIST<85.5] yes=57,no=58,missing=57
					57:leaf=185.995
					58:leaf=2.00282
				30:[AREA_ARRIVAL_TIME<240.243] yes=59,no=60,missing=59
					59:leaf=0.466993
					60:leaf=-12.9284
booster[23]:
0:[SHOP_REALTIME_CUSTOM_TIME<1068.54] yes=1,no=2,missing=1
	1:[SHOP_REALTIME_CUSTOM_TIME<30.125] yes=3,no=4,missing=3
		3:[SHOP_REALTIME_OVERSTOCK<1.5] yes=7,no=8,missing=7
			7:[SHOP_DISTIDX_CUSTOM_TIME<1404.03] yes=15,no=16,missing=15
				15:[SHOP_LEAVE_TIME<885.913] yes=31,no=32,missing=31
					31:leaf=0.0594162
					32:leaf=12.9672
				16:[SHOP_AVG_DIST<307.338] yes=33,no=34,missing=33
					33:leaf=168.263
					34:leaf=-6.29564
			8:[SHOP_REALTIME_LEAVE_TIME<8.16667] yes=17,no=18,missing=17
				17:[SHOP_AVG_ORDER<8.47222] yes=35,no=36,missing=35
					35:leaf=34.5794
					36:leaf=7.99879
				18:[SHOP_REALTIME_LEAVE_TIME<606.35] yes=37,no=38,missing=37
					37:leaf=-2.23544
					38:leaf=6.97064
		4:[SHOP_REALTIME_LEAVE_TIME<261.292] yes=9,no=10,missing=9
			9:[SHOP_REALTIME_CUSTOM_TIME<701.833] yes=19,no=20,missing=19
				19:[SHOP_DISTIDX_CUSTOM_TIME<-499917] yes=39,no=40,missing=39
					39:leaf=-44.6086
					40:leaf=-10.057
				20:[SHOP_CUSTOM_TIME<1863.13] yes=41,no=42,missing=41
					41:leaf=-3.98614
					42:leaf=95.358
			10:[SHOP_LEAVE_TIME<540.437] yes=21,no=22,missing=21
				21:[AREA_REALTIME_TOSHOP_AVGLOAD<2.4826] yes=43,no=44,missing=43
					43:leaf=1.5939
					44:leaf=167.725
				22:[AREA_TIMEIDX_TOCUSTOM_ORDER<1008.78] yes=45,no=46,missing=45
					45:leaf=-4.33762
					46:leaf=-20.5912
	2:[SHOP_DISTIDX_CUSTOM_TIME<1081.23] yes=5,no=6,missing=5
		5:[AREA_REALTIME_ORDER<328] yes=11,no=12,missing=11
			11:[SHOP_TIMEIDX_CUSTOM_TIME<1382.57] yes=23,no=24,missing=23
				23:[AREA_REALTIME_CUSTOM_TIME<1223.7] yes=47,no=48,missing=47
					47:leaf=9.6611
					48:leaf=-2.94585
				24:[AREA_REALTIME_LEAVESHOP_AVGLOAD<2.8914] yes=49,no=50,missing=49
					49:leaf=17.6134
					50:leaf=128.618
			12:[SHOP_TIMEIDX_LEAVE_TIME<410.508] yes=25,no=26,missing=25
				25:[AREA_DISTIDX_ARRIVAL_TIME<250.798] yes=51,no=52,missing=51
					51:leaf=329.744
					52:leaf=96.4029
				26:[SHOP_ARRIVAL_TIME<296.733] yes=53,no=54,missing=53
					53:leaf=3.49504
					54:leaf=175.719
		6:[ORDER_NAVI_DIST<805.5] yes=13,no=14,missing=13
			13:[AREA_DISTIDX_ARRIVAL_TIME<223.373] yes=27,no=28,missing=27
				27:[AREA_REALTIME_DISTIDX_CUSTOM_TIME<523.725] yes=55,no=56,missing=55
					55:leaf=-68.9621
					56:leaf=10.3709
				28:[AREA_REALTIME_LEAVE_TIME<812.003] yes=57,no=58,missing=57
					57:leaf=-16.9577
					58:leaf=-49.649
			14:[SHOP_REALTIME_LEAVE_TIME<1827.25] yes=29,no=30,missing=29
				29:[SHOP_REALTIME_NET_INFLOW<-0.5] yes=59,no=60,missing=59
					59:leaf=-1.12232
					60:leaf=6.37105
				30:[AREA_TIMEIDX_ARRIVAL_TIME<661.657] yes=61,no=62,missing=61
					61:leaf=34.6524
					62:leaf=351.933
booster[24]:
0:[ORDER_NAVI_DIST<3329.5] yes=1,no=2,missing=1
	1:[SHOP_DISTIDX_CUSTOM_TIME<1091.98] yes=3,no=4,missing=3
		3:[SHOP_LEAVE_TIME<671.318] yes=7,no=8,missing=7
			7:[ORDER_DIST<745.114] yes=15,no=16,missing=15
				15:[SHOP_DISTIDX_CUSTOM_TIME<850.31] yes=31,no=32,missing=31
					31:leaf=-0.439113
					32:leaf=-8.89225
				16:[AREA_AVG_DIST<1125.51] yes=33,no=34,missing=33
					33:leaf=0.18711
					34:leaf=4.44972
			8:[ORDER_NAVI_DIST<816.5] yes=17,no=18,missing=17
				17:[AREA_REALTIME_TOCUSTOM_AVGLOAD<2.16934] yes=35,no=36,missing=35
					35:leaf=2.05237
					36:leaf=26.0127
				18:[AREA_REALTIME_LEAVESHOP_AVGLOAD<2.31649] yes=37,no=38,missing=37
					37:leaf=13.038
					38:leaf=110.871
		4:[ORDER_NAVI_DIST<1028.5] yes=9,no=10,missing=9
			9:[AREA_REALTIME_LEAVESHOP_AVGLOAD<1.81322] yes=19,no=20,missing=19
				19:[SHOP_LEAVE_TIME<966.337] yes=39,no=40,missing=39
					39:leaf=-13.0682
					40:leaf=0.326214
				20:[ORDER_DIST<346.159] yes=41,no=42,missing=41
					41:leaf=-92.7831
					42:leaf=-23.9126
			10:[ORDER_TIMEIDX<128.5] yes=21,no=22,missing=21
				21:[AREA_REALTIME_ORDER<109.5] yes=43,no=44,missing=43
					43:leaf=2.24421
					44:leaf=47.9071
				22:[ORDER_TIMEIDX<171.5] yes=45,no=46,missing=45
					45:leaf=-5.09846
					46:leaf=-0.0153343
	2:[AREA_REALTIME_LEAVESHOP_AVGLOAD<2.91979] yes=5,no=6,missing=5
		5:[ORDER_NAVI_DIST<4049.5] yes=11,no=12,missing=11
			11:[AREA_AVG_DIST<1170.96] yes=23,no=24,missing=23
				23:[SHOP_LEAVE_TIME<686.78] yes=47,no=48,missing=47
					47:leaf=-0.587121
					48:leaf=9.45524
				24:[AREA_REALTIME_LEAVESHOP_AVGLOAD<1.22653] yes=49,no=50,missing=49
					49:leaf=8.58813
					50:leaf=27.9056
			12:[AREA_AVG_DIST<1157.56] yes=25,no=26,missing=25
				25:[AREA_REALTIME_TOCUSTOM_AVGLOAD<1.43446] yes=51,no=52,missing=51
					51:leaf=12.9543
					52:leaf=-24.6924
				26:[AREA_REALTIME_ORDER<273] yes=53,no=54,missing=53
					53:leaf=23.734
					54:leaf=118.782
		6:[SHOP_TIMEIDX_CUSTOM_TIME<1327.11] yes=13,no=14,missing=13
			13:[SHOP_REALTIME_ORDER<4.5] yes=27,no=28,missing=27
				27:[SHOP_DISTIDX_CUSTOM_TIME<1165.96] yes=55,no=56,missing=55
					55:leaf=-203.368
					56:leaf=53.3522
				28:[SHOP_REALTIME_ORDER<10.5] yes=57,no=58,missing=57
					57:leaf=119.917
					58:leaf=360.079
			14:[SHOP_TIMEIDX_OVERSTOCK<11.3125] yes=29,no=30,missing=29
				29:[AREA_TIMEIDX_ARRIVAL_TIME<423.425] yes=59,no=60,missing=59
					59:leaf=502.848
					60:leaf=273.123
				30:[SHOP_TIMEIDX_ARRIVAL_TIME<498.712] yes=61,no=62,missing=61
					61:leaf=-111.468
					62:leaf=78.9575
booster[25]:
0:[SHOP_REALTIME_OVERSTOCK<5.5] yes=1,no=2,missing=1
	1:[SHOP_TIMEIDX_OVERSTOCK<3.30952] yes=3,no=4,missing=3
		3:[AREA_REALTIME_CUSTOM_TIME<882.786] yes=7,no=8,missing=7
			7:[SHOP_ARRIVAL_TIME<363.847] yes=15,no=16,missing=15
				15:[AREA_REALTIME_LEAVESHOP_AVGLOAD<1.41591] yes=31,no=32,missing=31
					31:leaf=-1.07735
					32:leaf=-21.2462
				16:[AREA_REALTIME_LEAVESHOP_AVGLOAD<1.91849] yes=33,no=34,missing=33
					33:leaf=-10.9289
					34:leaf=221.189
			8:[AREA_REALTIME_RIDER<403.5] yes=17,no=18,missing=17
				17:[AREA_REALTIME_LEAVESHOP_ORDER<346.5] yes=35,no=36,missing=35
					35:leaf=1.81575
					36:leaf=18.0381
				18:[AREA_REALTIME_DISTIDX_CUSTOM_TIME<1111.18] yes=37,no=38,missing=37
					37:leaf=-0.529782
					38:leaf=-11.0382
		4:[SHOP_AVG_DIST<1396.74] yes=9,no=10,missing=9
			9:[AREA_TIMEIDX_TOCUSTOM_AVGLOAD<1.27593] yes=19,no=20,missing=19
				19:[AREA_REALTIME_LEAVESHOP_ORDER<449] yes=39,no=40,missing=39
					39:leaf=0.692184
					40:leaf=115.423
				20:[SHOP_ARRIVAL_TIME<304.761] yes=41,no=42,missing=41
					41:leaf=-8.08955
					42:leaf=0.664774
			10:[AREA_REALTIME_LEAVESHOP_ORDER<1369.5] yes=21,no=22,missing=21
				21:[SHOP_DISTIDX_CUSTOM_TIME<1659.55] yes=43,no=44,missing=43
					43:leaf=-10.0762
					44:leaf=-37.2637
				22:[SHOP_DISTIDX_CUSTOM_TIME<1764.86] yes=45,no=46,missing=45
					45:leaf=48.6739
					46:leaf=366.751
	2:[SHOP_REALTIME_NET_INFLOW<-2.5] yes=5,no=6,missing=5
		5:[SHOP_REALTIME_LEAVE_TIME<-499961] yes=11,no=12,missing=11
			11:[AREA_REALTIME_TOCUSTOM_ORDER<1147] yes=23,no=24,missing=23
				23:[SHOP_TIMEIDX_CUSTOM_TIME<1971.72] yes=47,no=48,missing=47
					47:leaf=34.2953
					48:leaf=127.511
				24:[SHOP_REALTIME_CUSTOM_TIME<2880.5] yes=49,no=50,missing=49
					49:leaf=-20.4304
					50:leaf=-185.701
			12:[SHOP_TIMEIDX_NET_INFLOW<-1.05556] yes=25,no=26,missing=25
				25:[AREA_REALTIME_TOCUSTOM_AVGLOAD<2.7274] yes=51,no=52,missing=51
					51:leaf=-27.611
					52:leaf=11.221
				26:[SHOP_REALTIME_LEAVE_TIME<1830.08] yes=53,no=54,missing=53
					53:leaf=-6.18143
					54:leaf=52.3853
		6:[SHOP_TIMEIDX_INORDER<1.69048] yes=13,no=14,missing=13
			13:[SHOP_LEAVE_TIME<977.531] yes=27,no=28,missing=27
				27:[SHOP_AVG_ORDER<122.722] yes=55,no=56,missing=55
					55:leaf=17.1237
					56:leaf=2.06119
				28:[ORDER_TIMEIDX<130.5] yes=57,no=58,missing=57
					57:leaf=197.09
					58:leaf=36.3899
			14:[AREA_AVG_DIST<1004.23] yes=29,no=30,missing=29
				29:[SHOP_REALTIME_OVERSTOCK<11.5] yes=59,no=60,missing=59
					59:leaf=13.4893
					60:leaf=52.0347
				30:[AREA_LEAVE_TIME<553.074] yes=61,no=62,missing=61
					61:leaf=22.1549
					62:leaf=2.18951
booster[26]:
0:[ORDER_NAVI_DIST<2480.5] yes=1,no=2,missing=1
	1:[SHOP_DISTIDX_CUSTOM_TIME<1417.17] yes=3,no=4,missing=3
		3:[SHOP_LEAVE_TIME<734.821] yes=7,no=8,missing=7
			7:[SHOP_DISTIDX_CUSTOM_TIME<1075.81] yes=15,no=16,missing=15
				15:[SHOP_DISTIDX_CUSTOM_TIME<1075.4] yes=31,no=32,missing=31
					31:leaf=-0.160625
					32:leaf=99.3764
				16:[AREA_REALTIME_LEAVESHOP_AVGLOAD<1.45116] yes=33,no=34,missing=33
					33:leaf=-3.85709
					34:leaf=-20.5316
			8:[SHOP_AVG_ORDER<34.5] yes=17,no=18,missing=17
				17:[SHOP_REALTIME_AVG_DIST<1191.79] yes=35,no=36,missing=35
					35:leaf=6.63465
					36:leaf=29.4538
				18:[AREA_TIMEIDX_CUSTOM_TIME<1196.24] yes=37,no=38,missing=37
					37:leaf=-0.944987
					38:leaf=9.45239
		4:[ORDER_NAVI_DIST<568.5] yes=9,no=10,missing=9
			9:[SHOP_LEAVE_TIME<1170.5] yes=19,no=20,missing=19
				19:[AREA_REALTIME_DISTIDX_CUSTOM_TIME<652.697] yes=39,no=40,missing=39
					39:leaf=-100.857
					40:leaf=-45.9504
				20:[AREA_REALTIME_LEAVESHOP_AVGLOAD<1.08652] yes=41,no=42,missing=41
					41:leaf=-54.5955
					42:leaf=14.838
			10:[SHOP_LEAVE_TIME<1263.98] yes=21,no=22,missing=21
				21:[AREA_TIMEIDX_ORDER<31.0556] yes=43,no=44,missing=43
					43:leaf=-15.3861
					44:leaf=-4.49143
				22:[AREA_DISTIDX_TIMEIDX_LEAVE_TIME<704.91] yes=45,no=46,missing=45
					45:leaf=44.4684
					46:leaf=2.19073
	2:[SHOP_DISTIDX_CUSTOM_TIME<1318.98] yes=5,no=6,missing=5
		5:[AREA_AVG_DIST<1144.71] yes=11,no=12,missing=11
			11:[AREA_REALTIME_LEAVESHOP_AVGLOAD<1.29753] yes=23,no=24,missing=23
				23:[SHOP_AVG_DIST<893.354] yes=47,no=48,missing=47
					47:leaf=16.2521
					48:leaf=1.31109
				24:[AREA_LEAVE_TIME<542.074] yes=49,no=50,missing=49
					49:leaf=-63.4068
					50:leaf=-9.02998
			12:[AREA_REALTIME_ORDER<188.5] yes=25,no=26,missing=25
				25:[SHOP_LEAVE_TIME<391.249] yes=51,no=52,missing=51
					51:leaf=-0.302423
					52:leaf=9.98269
				26:[AREA_DISTIDX_TIMEIDX_LEAVE_TIME<569.184] yes=53,no=54,missing=53
					53:leaf=306.818
					54:leaf=31.8983
		6:[SHOP_LEAVE_TIME<536.857] yes=13,no=14,missing=13
			13:[AREA_REALTIME_TOSHOP_ORDER<1020] yes=27,no=28,missing=27
				27:[AREA_TIMEIDX_TOSHOP_AVGLOAD<1.10745] yes=55,no=56,missing=55
					55:leaf=-4.11149
					56:leaf=-19.4307
				28:[SHOP_TIMEIDX_ARRIVAL_TIME<412.942] yes=57,no=58,missing=57
					57:leaf=-56.1003
					58:leaf=-238.167
			14:[SHOP_TIMEIDX_CUSTOM_TIME<1385.05] yes=29,no=30,missing=29
				29:[AREA_TIMEIDX_ORDER<215.667] yes=59,no=60,missing=59
					59:leaf=-0.492993
					60:leaf=-45.7747
				30:[AREA_TIMEIDX_TOCUSTOM_AVGLOAD<1.08521] yes=61,no=62,missing=61
					61:leaf=59.4672
					62:leaf=6.37866
booster[27]:
0:[ORDER_NAVI_DIST<762.5] yes=1,no=2,missing=1
	1:[SHOP_DISTIDX_CUSTOM_TIME<913.93] yes=3,no=4,missing=3
		3:[AREA_REALTIME_LEAVESHOP_AVGLOAD<1.60676] yes=7,no=8,missing=7
			7:[SHOP_REALTIME_ARRIVAL_TIME<308.111] yes=15,no=16,missing=15
				15:[ORDER_TIMEIDX<266.5] yes=31,no=32,missing=31
					31:leaf=-0.404124
					32:leaf=-12.5738
				16:[AREA_REALTIME_TOSHOP_ORDER<433.5] yes=33,no=34,missing=33
					33:leaf=8.79778
					34:leaf=-9.45402
			8:[ORDER_NAVI_DIST<276.5] yes=17,no=18,missing=17
				17:[SHOP_DISTIDX_CUSTOM_TIME<710.189] yes=35,no=36,missing=35
					35:leaf=-57.5111
					36:leaf=-20.3966
				18:[AREA_REALTIME_LEAVESHOP_ORDER<1370.5] yes=37,no=38,missing=37
					37:leaf=-2.43847
					38:leaf=-231.047
		4:[SHOP_LEAVE_TIME<723.101] yes=9,no=10,missing=9
			9:[AREA_REALTIME_ORDER<357.5] yes=19,no=20,missing=19
				19:[AREA_REALTIME_TOSHOP_AVGLOAD<1.91923] yes=39,no=40,missing=39
					39:leaf=-18.171
					40:leaf=51.0096
				20:[SHOP_TIMEIDX_OVERSTOCK<4.925] yes=41,no=42,missing=41
					41:leaf=595.65
					42:leaf=-36.209
			10:[SHOP_DISTIDX_CUSTOM_TIME<1179.26] yes=21,no=22,missing=21
				21:[SHOP_LEAVE_TIME<1082.8] yes=43,no=44,missing=43
					43:leaf=-0.626326
					44:leaf=62.8646
				22:[AREA_REALTIME_LEAVESHOP_AVGLOAD<2.00276] yes=45,no=46,missing=45
					45:leaf=-14.5104
					46:leaf=-83.917
	2:[AREA_AVG_RIDER<435.667] yes=5,no=6,missing=5
		5:[SHOP_AVG_DIST<879.342] yes=11,no=12,missing=11
			11:[AREA_REALTIME_LEAVESHOP_AVGLOAD<2.41578] yes=23,no=24,missing=23
				23:[SHOP_ARRIVAL_TIME<459.019] yes=47,no=48,missing=47
					47:leaf=4.82258
					48:leaf=-24.8779
				24:[AREA_REALTIME_CUSTOM_TIME<1144.92] yes=49,no=50,missing=49
					49:leaf=121.638
					50:leaf=22.4976
			12:[AREA_REALTIME_CUSTOM_TIME<1676.99] yes=25,no=26,missing=25
				25:[SHOP_LEAVE_TIME<649.791] yes=51,no=52,missing=51
					51:leaf=-3.4033
					52:leaf=0.729191
				26:[AREA_TIMEIDX_RIDER<262.944] yes=53,no=54,missing=53
					53:leaf=-28.4532
					54:leaf=25.5974
		6:[AREA_LEAVE_TIME<568.907] yes=13,no=14,missing=13
			13:[SHOP_AVG_DIST<1257.04] yes=27,no=28,missing=27
				27:[SHOP_REALTIME_OVERSTOCK<45] yes=55,no=56,missing=55
					55:leaf=8.13436
					56:leaf=130.294
				28:[SHOP_AVG_DIST<1263.99] yes=57,no=58,missing=57
					57:leaf=-25.8007
					58:leaf=1.7281
			14:[AREA_TIMEIDX_ORDER<186.222] yes=29,no=30,missing=29
				29:[AREA_LEAVE_TIME<581.657] yes=59,no=60,missing=59
					59:leaf=-2.45476
					60:leaf=2.14254
				30:[AREA_REALTIME_DISTIDX_CUSTOM_TIME<1396.71] yes=61,no=62,missing=61
					61:leaf=12.7789
					62:leaf=65.5955
booster[28]:
0:[SHOP_REALTIME_CUSTOM_TIME<1374.71] yes=1,no=2,missing=1
	1:[AREA_AVG_DIST<1197.28] yes=3,no=4,missing=3
		3:[SHOP_AVG_DIST<997.382] yes=7,no=8,missing=7
			7:[AREA_REALTIME_LEAVESHOP_AVGLOAD<2.69038] yes=15,no=16,missing=15
				15:[ORDER_WEEKDAY<2.5] yes=31,no=32,missing=31
					31:leaf=3.86829
					32:leaf=-0.533113
				16:[SHOP_ARRIVAL_TIME<175.75] yes=33,no=34,missing=33
					33:leaf=-49.2098
					34:leaf=65.3895
			8:[AREA_REALTIME_LEAVESHOP_AVGLOAD<1.46103] yes=17,no=18,missing=17
				17:[SHOP_REALTIME_ARRIVAL_TIME<243.95] yes=35,no=36,missing=35
					35:leaf=-2.16718
					36:leaf=2.5331
				18:[SHOP_TIMEIDX_LEAVE_TIME<756.268] yes=37,no=38,missing=37
					37:leaf=-16.1948
					38:leaf=1.20429
		4:[AREA_REALTIME_LEAVESHOP_AVGLOAD<1.16416] yes=9,no=10,missing=9
			9:[SHOP_LEAVE_TIME<550.76] yes=19,no=20,missing=19
				19:[SHOP_CUSTOM_TIME<1085.61] yes=39,no=40,missing=39
					39:leaf=-0.191818
					40:leaf=-16.2613
				20:[SHOP_AVG_DIST<1382.52] yes=41,no=42,missing=41
					41:leaf=7.29334
					42:leaf=-5.2656
			10:[ORDER_TIMEIDX<134.5] yes=21,no=22,missing=21
				21:[AREA_REALTIME_LEAVE_TIME<641.174] yes=43,no=44,missing=43
					43:leaf=23.0883
					44:leaf=54.6156
				22:[AREA_REALTIME_RIDER<167.5] yes=45,no=46,missing=45
					45:leaf=46.2515
					46:leaf=7.698
	2:[AREA_REALTIME_DISTIDX_CUSTOM_TIME<1310.08] yes=5,no=6,missing=5
		5:[AREA_REALTIME_TOSHOP_AVGLOAD<1.16775] yes=11,no=12,missing=11
			11:[SHOP_TIMEIDX_OVERSTOCK<4.3875] yes=23,no=24,missing=23
				23:[SHOP_REALTIME_OVERSTOCK<3.5] yes=47,no=48,missing=47
					47:leaf=5.61233
					48:leaf=20.7676
				24:[SHOP_TIMEIDX_NET_INFLOW<-1.35417] yes=49,no=50,missing=49
					49:leaf=-26.3625
					50:leaf=2.23445
			12:[AREA_LEAVE_TIME<609.113] yes=25,no=26,missing=25
				25:[AREA_REALTIME_AVG_DIST<1419.77] yes=51,no=52,missing=51
					51:leaf=26.7013
					52:leaf=123.272
				26:[SHOP_DISTIDX_CUSTOM_TIME<2351] yes=53,no=54,missing=53
					53:leaf=8.49837
					54:leaf=200.966
		6:[AREA_DISTIDX_TIMEIDX_CUSTOM_TIME<1507.8] yes=13,no=14,missing=13
			13:[SHOP_REALTIME_LEAVE_TIME<1328.62] yes=27,no=28,missing=27
				27:[AREA_DISTIDX_ARRIVAL_TIME<335.254] yes=55,no=56,missing=55
					55:leaf=-5.0273
					56:leaf=-35.0927
				28:[AREA_TIMEIDX_CUSTOM_TIME<1195.33] yes=57,no=58,missing=57
					57:leaf=-4.58986
					58:leaf=37.7014
			14:[AREA_DISTIDX_TIMEIDX_ARRIVAL_TIME<263.192] yes=29,no=30,missing=29
				29:[SHOP_TIMEIDX_CUSTOM_TIME<1906.83] yes=59,no=60,missing=59
					59:leaf=66.8639
					60:leaf=554.084
				30:[AREA_REALTIME_LEAVESHOP_ORDER<1259] yes=61,no=62,missing=61
					61:leaf=12.7462
					62:leaf=-17.9756
booster[29]:
0:[ORDER_NAVI_DIST<2007.5] yes=1,no=2,missing=1
	1:[SHOP_DISTIDX_CUSTOM_TIME<1081.64] yes=3,no=4,missing=3
		3:[SHOP_TIMEIDX_LEAVE_TIME<500.983] yes=7,no=8,missing=7
			7:[AREA_REALTIME_ORDER<337] yes=15,no=16,missing=15
				15:[SHOP_TIMEIDX_LEAVE_TIME<62.75] yes=31,no=32,missing=31
					31:leaf=1.21679
					32:leaf=-2.68401
				16:[ORDER_NAVI_DIST<1585.5] yes=33,no=34,missing=33
					33:leaf=35.8282
					34:leaf=254.752
			8:[ORDER_DIST<315.236] yes=17,no=18,missing=17
				17:[AREA_DISTIDX_TIMEIDX_CUSTOM_TIME<1109.9] yes=35,no=36,missing=35
					35:leaf=0.206523
					36:leaf=-11.9819
				18:[SHOP_LEAVE_TIME<922.195] yes=37,no=38,missing=37
					37:leaf=3.46782
					38:leaf=42.9846
		4:[SHOP_LEAVE_TIME<581.108] yes=9,no=10,missing=9
			9:[SHOP_AVG_ORDER<365.611] yes=19,no=20,missing=19
				19:[SHOP_CUSTOM_TIME<609.388] yes=39,no=40,missing=39
					39:leaf=69.9692
					40:leaf=-13.7745
				20:[AREA_REALTIME_LEAVESHOP_AVGLOAD<1.36902] yes=41,no=42,missing=41
					41:leaf=48.2264
					42:leaf=-96.8894
			10:[ORDER_NAVI_DIST<854.5] yes=21,no=22,missing=21
				21:[AREA_TIMEIDX_RIDER<95.5] yes=43,no=44,missing=43
					43:leaf=-17.8052
					44:leaf=-4.79427
				22:[ORDER_DIST<480.997] yes=45,no=46,missing=45
					45:leaf=20.8435
					46:leaf=-1.84562
	2:[SHOP_DISTIDX_CUSTOM_TIME<1092.01] yes=5,no=6,missing=5
		5:[SHOP_LEAVE_TIME<433.788] yes=11,no=12,missing=11
			11:[SHOP_DISTIDX_CUSTOM_TIME<895.195] yes=23,no=24,missing=23
				23:[AREA_TIMEIDX_LEAVE_TIME<836.423] yes=47,no=48,missing=47
					47:leaf=4.88595
					48:leaf=101.839
				24:[AREA_REALTIME_LEAVESHOP_AVGLOAD<2.12433] yes=49,no=50,missing=49
					49:leaf=-4.79125
					50:leaf=-118.599
			12:[AREA_REALTIME_TOSHOP_AVGLOAD<2.12634] yes=25,no=26,missing=25
				25:[SHOP_TIMEIDX_INORDER<1.13393] yes=51,no=52,missing=51
					51:leaf=11.4388
					52:leaf=4.30196
				26:[SHOP_TIMEIDX_NET_INFLOW<0.854167] yes=53,no=54,missing=53
					53:leaf=103.709
					54:leaf=-96.8456
		6:[SHOP_LEAVE_TIME<393.593] yes=13,no=14,missing=13
			13:[AREA_REALTIME_LEAVESHOP_AVGLOAD<1.42158] yes=27,no=28,missing=27
				27:[ORDER_DIST<1743.08] yes=55,no=56,missing=55
					55:leaf=-39.1171
					56:leaf=-10.7832
				28:[SHOP_DISTIDX_CUSTOM_TIME<1164.18] yes=57,no=58,missing=57
					57:leaf=-4.70263
					58:leaf=-76.1695
			14:[SHOP_AVG_DIST<1449.32] yes=29,no=30,missing=29
				29:[SHOP_AVG_DIST<1448.94] yes=59,no=60,missing=59
					59:leaf=1.57608
					60:leaf=65.3928
				30:[SHOP_CUSTOM_TIME<1957.3] yes=61,no=62,missing=61
					61:leaf=-6.71691
					62:leaf=76.1606
booster[30]:
0:[ORDER_TIMEIDX<267.5] yes=1,no=2,missing=1
	1:[ORDER_TIMEIDX<172.5] yes=3,no=4,missing=3
		3:[ORDER_TIMEIDX<138.5] yes=7,no=8,missing=7
			7:[SHOP_CUSTOM_TIME<1097.98] yes=15,no=16,missing=15
				15:[SHOP_REALTIME_OVERSTOCK<28.5] yes=31,no=32,missing=31
					31:leaf=-0.625065
					32:leaf=24.8857
				16:[ORDER_WEEKDAY<2.5] yes=33,no=34,missing=33
					33:leaf=-2.36722
					34:leaf=7.87186
			8:[ORDER_WEEKDAY<2.5] yes=17,no=18,missing=17
				17:[SHOP_REALTIME_CUSTOM_TIME<1823.5] yes=35,no=36,missing=35
					35:leaf=-1.32435
					36:leaf=26.5862
				18:[SHOP_DISTIDX_CUSTOM_TIME<863.135] yes=37,no=38,missing=37
					37:leaf=-1.81794
					38:leaf=-7.30371
		4:[AREA_REALTIME_CUSTOM_TIME<1003.98] yes=9,no=10,missing=9
			9:[AREA_LEAVE_TIME<614.246] yes=19,no=20,missing=19
				19:[ORDER_NAVI_DIST<2896.5] yes=39,no=40,missing=39
					39:leaf=0.670097
					40:leaf=8.85576
				20:[SHOP_DISTIDX_CUSTOM_TIME<1312.48] yes=41,no=42,missing=41
					41:leaf=-0.519784
					42:leaf=-7.7436
			10:[AREA_TIMEIDX_ORDER<121.333] yes=21,no=22,missing=21
				21:[ORDER_TIMEIDX<213.5] yes=43,no=44,missing=43
					43:leaf=11.13
					44:leaf=2.09405
				22:[AREA_REALTIME_AVG_DIST<1175.82] yes=45,no=46,missing=45
					45:leaf=33.1903
					46:leaf=154.816
	2:[SHOP_REALTIME_AVG_DIST<438.132] yes=5,no=6,missing=5
		5:[SHOP_ARRIVAL_TIME<281.954] yes=11,no=12,missing=11
			11:[SHOP_LEAVE_TIME<1278.82] yes=23,no=24,missing=23
				23:[SHOP_AVG_ORDER<5.88194] yes=47,no=48,missing=47
					47:leaf=14.9137
					48:leaf=-7.87413
				24:[AREA_REALTIME_TOSHOP_AVGLOAD<1.03923] yes=49,no=50,missing=49
					49:leaf=171.893
					50:leaf=21.5252
			12:[ORDER_DIST<62.2376] yes=25,no=26,missing=25
				25:[SHOP_CUSTOM_TIME<1302.79] yes=51,no=52,missing=51
					51:leaf=-36.0199
					52:leaf=-83.6128
				26:[SHOP_AVG_DIST<1735.07] yes=53,no=54,missing=53
					53:leaf=-17.739
					54:leaf=37.192
		6:[AREA_DISTIDX_ARRIVAL_TIME<183.498] yes=13,no=14,missing=13
			13:[SHOP_AVG_ORDER<15.746] yes=27,no=28,missing=27
				27:[SHOP_AVG_ORDER<15.4683] yes=55,no=56,missing=55
					55:leaf=-7.53432
					56:leaf=3784.19
				28:[SHOP_ARRIVAL_TIME<299.835] yes=57,no=58,missing=57
					57:leaf=12.1015
					58:leaf=105.315
			14:[SHOP_TIMEIDX_LEAVE_TIME<1217.58] yes=29,no=30,missing=29
				29:[SHOP_CUSTOM_TIME<1372.35] yes=59,no=60,missing=59
					59:leaf=2.22436
					60:leaf=-22.3665
				30:[AREA_AVG_DIST<1133.07] yes=61,no=62,missing=61
					61:leaf=0.953514
					62:leaf=102.932
booster[31]:
0:[SHOP_REALTIME_CUSTOM_TIME<1672.25] yes=1,no=2,missing=1
	1:[SHOP_LEAVE_TIME<355.614] yes=3,no=4,missing=3
		3:[SHOP_ARRIVAL_TIME<131.323] yes=7,no=8,missing=7
			7:[AREA_REALTIME_LEAVESHOP_ORDER<386] yes=15,no=16,missing=15
				15:[SHOP_LEAVE_TIME<321.094] yes=31,no=32,missing=31
					31:leaf=-4.09461
					32:leaf=8.31917
				16:[ORDER_TIMEIDX<129.5] yes=33,no=34,missing=33
					33:leaf=97.3524
					34:leaf=16.0008
			8:[SHOP_DISTIDX_CUSTOM_TIME<860.808] yes=17,no=18,missing=17
				17:[SHOP_DISTIDX_CUSTOM_TIME<601.86] yes=35,no=36,missing=35
					35:leaf=-12.2893
					36:leaf=-2.19687
				18:[AREA_REALTIME_LEAVESHOP_ORDER<1004.5] yes=37,no=38,missing=37
					37:leaf=-15.7983
					38:leaf=49.5552
		4:[SHOP_DISTIDX_CUSTOM_TIME<849.973] yes=9,no=10,missing=9
			9:[AREA_REALTIME_LEAVESHOP_AVGLOAD<1.60077] yes=19,no=20,missing=19
				19:[ORDER_DIST<389.85] yes=39,no=40,missing=39
					39:leaf=0.353804
					40:leaf=6.0316
				20:[AREA_REALTIME_TOCUSTOM_AVGLOAD<5.13245] yes=41,no=42,missing=41
					41:leaf=-17.4849
					42:leaf=52.2527
			10:[ORDER_NAVI_DIST<952.5] yes=21,no=22,missing=21
				21:[SHOP_LEAVE_TIME<824.88] yes=43,no=44,missing=43
					43:leaf=-6.22382
					44:leaf=1.17144
				22:[SHOP_DISTIDX_CUSTOM_TIME<1404.03] yes=45,no=46,missing=45
					45:leaf=0.902851
					46:leaf=-2.7239
	2:[AREA_REALTIME_CUSTOM_TIME<2877.52] yes=5,no=6,missing=5
		5:[SHOP_AVG_ORDER<281.611] yes=11,no=12,missing=11
			11:[SHOP_TIMEIDX_INORDER<4.35417] yes=23,no=24,missing=23
				23:[AREA_REALTIME_LEAVESHOP_ORDER<1263.5] yes=47,no=48,missing=47
					47:leaf=9.10572
					48:leaf=-32.648
				24:[AREA_DISTIDX_ARRIVAL_TIME<343.262] yes=49,no=50,missing=49
					49:leaf=41.4892
					50:leaf=226.654
			12:[ORDER_TIMEIDX<126.5] yes=25,no=26,missing=25
				25:[SHOP_REALTIME_ARRIVAL_TIME<116.367] yes=51,no=52,missing=51
					51:leaf=189.274
					52:leaf=-54.4665
				26:[AREA_TIMEIDX_TOSHOP_AVGLOAD<1.49457] yes=53,no=54,missing=53
					53:leaf=-12.3173
					54:leaf=-105.78
		6:[SHOP_REALTIME_NET_INFLOW<3.5] yes=13,no=14,missing=13
			13:[AREA_TIMEIDX_CUSTOM_TIME<1440.97] yes=27,no=28,missing=27
				27:[ORDER_DIST<2791.25] yes=55,no=56,missing=55
					55:leaf=-53.4197
					56:leaf=155.421
				28:[SHOP_REALTIME_NET_INFLOW<-7] yes=57,no=58,missing=57
					57:leaf=-75.0367
					58:leaf=29.7143
			14:[AREA_DISTIDX_ARRIVAL_TIME<343.037] yes=29,no=30,missing=29
				29:[AREA_REALTIME_DISTIDX_LEAVE_TIME<1221.28] yes=59,no=60,missing=59
					59:leaf=89.4626
					60:leaf=-15.3815
				30:leaf=260.988
booster[32]:
0:[SHOP_REALTIME_LEAVE_TIME<1328.58] yes=1,no=2,missing=1
	1:[SHOP_LEAVE_TIME<1263.98] yes=3,no=4,missing=3
		3:[SHOP_CUSTOM_TIME<1552.62] yes=7,no=8,missing=7
			7:[SHOP_ARRIVAL_TIME<476.281] yes=15,no=16,missing=15
				15:[SHOP_LEAVE_TIME<564.886] yes=31,no=32,missing=31
					31:leaf=-1.16954
					32:leaf=1.42199
				16:[SHOP_LEAVE_TIME<796.967] yes=33,no=34,missing=33
					33:leaf=-23.2807
					34:leaf=-3.87589
			8:[SHOP_CUSTOM_TIME<1705.6] yes=17,no=18,missing=17
				17:[AREA_REALTIME_RIDER<566.5] yes=35,no=36,missing=35
					35:leaf=-13.1245
					36:leaf=58.6143
				18:[ORDER_TIMEIDX<129.5] yes=37,no=38,missing=37
					37:leaf=49.2862
					38:leaf=-0.993342
		4:[AREA_TIMEIDX_ORDER<4.27778] yes=9,no=10,missing=9
			9:[AREA_DISTIDX_TIMEIDX_CUSTOM_TIME<1694.92] yes=19,no=20,missing=19
				19:[AREA_REALTIME_AVG_DIST<1697.67] yes=39,no=40,missing=39
					39:leaf=-73.0691
					40:leaf=52.2379
				20:[AREA_TIMEIDX_TOSHOP_AVGLOAD<1.04881] yes=41,no=42,missing=41
					41:leaf=150.272
					42:leaf=-30.8431
			10:[SHOP_AVG_DIST<1102.85] yes=21,no=22,missing=21
				21:[ORDER_TIMEIDX<130.5] yes=43,no=44,missing=43
					43:leaf=108.075
					44:leaf=9.0926
				22:[AREA_DISTIDX_TIMEIDX_CUSTOM_TIME<2133.18] yes=45,no=46,missing=45
					45:leaf=57.8451
					46:leaf=-128.486
	2:[SHOP_REALTIME_OVERSTOCK<16.5] yes=5,no=6,missing=5
		5:[AREA_REALTIME_AVG_DIST<1025.02] yes=11,no=12,missing=11
			11:[SHOP_ARRIVAL_TIME<126.496] yes=23,no=24,missing=23
				23:[SHOP_TIMEIDX_INORDER<1.55] yes=47,no=48,missing=47
					47:leaf=2.57205
					48:leaf=132.37
				24:[SHOP_TIMEIDX_NET_INFLOW<2.35417] yes=49,no=50,missing=49
					49:leaf=-11.5269
					50:leaf=202.571
			12:[ORDER_DIST<2993.21] yes=25,no=26,missing=25
				25:[SHOP_REALTIME_CUSTOM_TIME<331] yes=51,no=52,missing=51
					51:leaf=21.1292
					52:leaf=4.92024
				26:leaf=544.144
		6:[AREA_TIMEIDX_TOSHOP_AVGLOAD<1.04505] yes=13,no=14,missing=13
			13:[ORDER_DIST<1376.47] yes=27,no=28,missing=27
				27:[SHOP_DISTIDX_CUSTOM_TIME<1117.38] yes=53,no=54,missing=53
					53:leaf=-41.3421
					54:leaf=122.212
				28:leaf=1498.65
			14:[SHOP_TIMEIDX_ARRIVAL_TIME<950.35] yes=29,no=30,missing=29
				29:[ORDER_TIMEIDX<220.5] yes=55,no=56,missing=55
					55:leaf=30.2211
					56:leaf=-57.3381
				30:[AREA_DISTIDX_CUSTOM_TIME<1498.31] yes=57,no=58,missing=57
					57:leaf=336.555
					58:leaf=45.5073
booster[33]:
0:[AREA_AVG_RIDER<435.667] yes=1,no=2,missing=1
	1:[SHOP_AVG_DIST<880.212] yes=3,no=4,missing=3
		3:[AREA_AVG_RIDER<124.889] yes=7,no=8,missing=7
			7:[AREA_REALTIME_ORDER<43.5] yes=15,no=16,missing=15
				15:[SHOP_ARRIVAL_TIME<454.355] yes=31,no=32,missing=31
					31:leaf=-3.30737
					32:leaf=-44.8229
				16:[SHOP_AVG_ORDER<12.5] yes=33,no=34,missing=33
					33:leaf=188.602
					34:leaf=24.0713
			8:[AREA_DISTIDX_LEAVE_TIME<662.736] yes=17,no=18,missing=17
				17:[AREA_REALTIME_ORDER<199.5] yes=35,no=36,missing=35
					35:leaf=3.18592
					36:leaf=87.9203
				18:[AREA_REALTIME_TOSHOP_ORDER<336.5] yes=37,no=38,missing=37
					37:leaf=15.2448
					38:leaf=205.204
		4:[SHOP_REALTIME_NET_INFLOW<-0.5] yes=9,no=10,missing=9
			9:[AREA_AVG_DIST<894.65] yes=19,no=20,missing=19
				19:[AREA_REALTIME_TOCUSTOM_ORDER<130] yes=39,no=40,missing=39
					39:leaf=-10.6694
					40:leaf=-56.1384
				20:[SHOP_DISTIDX_CUSTOM_TIME<1091.69] yes=41,no=42,missing=41
					41:leaf=-1.78426
					42:leaf=-4.82808
			10:[AREA_REALTIME_TOCUSTOM_ORDER<385.5] yes=21,no=22,missing=21
				21:[SHOP_REALTIME_OVERSTOCK<5.5] yes=43,no=44,missing=43
					43:leaf=-0.00833283
					44:leaf=10.0535
				22:[ORDER_TIMEIDX<128.5] yes=45,no=46,missing=45
					45:leaf=108.725
					46:leaf=-10.3349
	2:[AREA_REALTIME_RIDER<361.5] yes=5,no=6,missing=5
		5:[AREA_REALTIME_TOSHOP_ORDER<239.5] yes=11,no=12,missing=11
			11:[AREA_REALTIME_ARRIVAL_TIME<251.966] yes=23,no=24,missing=23
				23:[ORDER_TIMEIDX<126.5] yes=47,no=48,missing=47
					47:leaf=4.80123
					48:leaf=-1.18612
				24:[AREA_REALTIME_ORDER<127] yes=49,no=50,missing=49
					49:leaf=3.37626
					50:leaf=53.283
			12:[AREA_TIMEIDX_CUSTOM_TIME<1411.86] yes=25,no=26,missing=25
				25:[AREA_TIMEIDX_TOSHOP_AVGLOAD<1.10437] yes=51,no=52,missing=51
					51:leaf=60.1585
					52:leaf=10.1925
				26:[SHOP_ARRIVAL_TIME<307.542] yes=53,no=54,missing=53
					53:leaf=20.422
					54:leaf=84.2728
		6:[SHOP_TIMEIDX_ARRIVAL_TIME<335.038] yes=13,no=14,missing=13
			13:[AREA_TIMEIDX_ARRIVAL_TIME<172.454] yes=27,no=28,missing=27
				27:[SHOP_TIMEIDX_ARRIVAL_TIME<128.219] yes=55,no=56,missing=55
					55:leaf=128.797
					56:leaf=1.81301
				28:[AREA_AVG_DIST<1185.09] yes=57,no=58,missing=57
					57:leaf=-4.32661
					58:leaf=-18.7435
			14:[SHOP_TIMEIDX_OVERSTOCK<33.1667] yes=29,no=30,missing=29
				29:[AREA_REALTIME_AVG_DIST<1475.21] yes=59,no=60,missing=59
					59:leaf=2.55159
					60:leaf=-53.1841
				30:[AREA_DISTIDX_TIMEIDX_ARRIVAL_TIME<434.621] yes=61,no=62,missing=61
					61:leaf=-22.6108
					62:leaf=-93.969
booster[34]:
0:[ORDER_NAVI_DIST<3957.5] yes=1,no=2,missing=1
	1:[ORDER_TIMEIDX<279.5] yes=3,no=4,missing=3
		3:[SHOP_TIMEIDX_LEAVE_TIME<1174.74] yes=7,no=8,missing=7
			7:[SHOP_DISTIDX_CUSTOM_TIME<1403.89] yes=15,no=16,missing=15
				15:[SHOP_LEAVE_TIME<787.656] yes=27,no=28,missing=27
					27:leaf=-0.134789
					28:leaf=4.17515
				16:[SHOP_LEAVE_TIME<599.316] yes=29,no=30,missing=29
					29:leaf=-11.3083
					30:leaf=-1.74633
			8:[SHOP_TIMEIDX_OVERSTOCK<19.7083] yes=17,no=18,missing=17
				17:[SHOP_REALTIME_NET_INFLOW<2.5] yes=31,no=32,missing=31
					31:leaf=5.15177
					32:leaf=36.7358
				18:[AREA_DISTIDX_CUSTOM_TIME<1577.24] yes=33,no=34,missing=33
					33:leaf=-43.4135
					34:leaf=83.5426
		4:[AREA_REALTIME_TOCUSTOM_AVGLOAD<1.29521] yes=9,no=10,missing=9
			9:[SHOP_CUSTOM_TIME<1743.48] yes=19,no=20,missing=19
				19:[SHOP_CUSTOM_TIME<982.405] yes=35,no=36,missing=35
					35:leaf=-3.30324
					36:leaf=-12.2656
				20:[AREA_TIMEIDX_ORDER<11.9444] yes=37,no=38,missing=37
					37:leaf=-34.209
					38:leaf=129.084
			10:[SHOP_LEAVE_TIME<950.433] yes=21,no=22,missing=21
				21:[ORDER_DIST<1018.37] yes=39,no=40,missing=39
					39:leaf=-19.3396
					40:leaf=-66.0411
				22:[SHOP_TIMEIDX_OVERSTOCK<2.79762] yes=41,no=42,missing=41
					41:leaf=-130.264
					42:leaf=-11.0173
	2:[AREA_REALTIME_ORDER<357.5] yes=5,no=6,missing=5
		5:[SHOP_REALTIME_NET_INFLOW<3.5] yes=11,no=12,missing=11
			11:[ORDER_NAVI_DIST<4683] yes=23,no=24,missing=23
				23:[AREA_TIMEIDX_CUSTOM_TIME<1896] yes=43,no=44,missing=43
					43:leaf=6.69856
					44:leaf=-51.9185
				24:[ORDER_NAVI_DIST<4689.5] yes=45,no=46,missing=45
					45:leaf=164.683
					46:leaf=20.9332
			12:[ORDER_TIMEIDX<128.5] yes=25,no=26,missing=25
				25:[AREA_DISTIDX_TIMEIDX_LEAVE_TIME<623.583] yes=47,no=48,missing=47
					47:leaf=-85.8917
					48:leaf=484.686
				26:[SHOP_TIMEIDX_LEAVE_TIME<735.472] yes=49,no=50,missing=49
					49:leaf=5.33271
					50:leaf=92.9972
		6:[SHOP_LEAVE_TIME<746.098] yes=13,no=14,missing=13
			13:leaf=254.318
			14:leaf=-14.5131
booster[35]:
0:[ORDER_NAVI_DIST<1484.5] yes=1,no=2,missing=1
	1:[SHOP_DISTIDX_CUSTOM_TIME<1046.11] yes=3,no=4,missing=3
		3:[SHOP_ARRIVAL_TIME<304.08] yes=7,no=8,missing=7
			7:[SHOP_DISTIDX_CUSTOM_TIME<696.256] yes=15,no=16,missing=15
				15:[SHOP_LEAVE_TIME<459.29] yes=31,no=32,missing=31
					31:leaf=-0.82736
					32:leaf=4.9816
				16:[ORDER_NAVI_DIST<807.5] yes=33,no=34,missing=33
					33:leaf=-4.63703
					34:leaf=0.10938
			8:[AREA_REALTIME_LEAVESHOP_ORDER<50.5] yes=17,no=18,missing=17
				17:[SHOP_ARRIVAL_TIME<329.524] yes=35,no=36,missing=35
					35:leaf=0.989493
					36:leaf=-16.7587
				18:[SHOP_LEAVE_TIME<477.223] yes=37,no=38,missing=37
					37:leaf=-27.3806
					38:leaf=7.34998
		4:[SHOP_LEAVE_TIME<793.788] yes=9,no=10,missing=9
			9:[AREA_REALTIME_LEAVESHOP_AVGLOAD<1.46103] yes=19,no=20,missing=19
				19:[AREA_REALTIME_LEAVESHOP_AVGLOAD<1.46007] yes=39,no=40,missing=39
					39:leaf=-5.99139
					40:leaf=155.496
				20:[AREA_REALTIME_ARRIVAL_TIME<278.809] yes=41,no=42,missing=41
					41:leaf=-115.52
					42:leaf=-19.6362
			10:[SHOP_TIMEIDX_OVERSTOCK<6.13393] yes=21,no=22,missing=21
				21:[AREA_DISTIDX_TIMEIDX_LEAVE_TIME<524.508] yes=43,no=44,missing=43
					43:leaf=-8.86127
					44:leaf=2.6946
				22:[AREA_REALTIME_RIDER<522] yes=45,no=46,missing=45
					45:leaf=-15.0437
					46:leaf=16.363
	2:[AREA_TIMEIDX_TOCUSTOM_AVGLOAD<1.3051] yes=5,no=6,missing=5
		5:[AREA_REALTIME_LEAVESHOP_AVGLOAD<1.45934] yes=11,no=12,missing=11
			11:[AREA_REALTIME_ARRIVAL_TIME<271.15] yes=23,no=24,missing=23
				23:[AREA_REALTIME_TOCUSTOM_AVGLOAD<1.49017] yes=47,no=48,missing=47
					47:leaf=1.02164
					48:leaf=71.1964
				24:[AREA_TIMEIDX_CUSTOM_TIME<1194.69] yes=49,no=50,missing=49
					49:leaf=5.0343
					50:leaf=36.9049
			12:[ORDER_NAVI_DIST<2119.5] yes=25,no=26,missing=25
				25:[AREA_TIMEIDX_ARRIVAL_TIME<253.977] yes=51,no=52,missing=51
					51:leaf=-37.3592
					52:leaf=100.732
				26:[SHOP_AVG_DIST<1577.12] yes=53,no=54,missing=53
					53:leaf=-68.7986
					54:leaf=288.077
		6:[AREA_CUSTOM_TIME<1072.38] yes=13,no=14,missing=13
			13:[AREA_DISTIDX_CUSTOM_TIME<1083.93] yes=27,no=28,missing=27
				27:[AREA_TIMEIDX_CUSTOM_TIME<1227.66] yes=55,no=56,missing=55
					55:leaf=-1.87262
					56:leaf=12.2099
				28:[AREA_DISTIDX_LEAVE_TIME<691.011] yes=57,no=58,missing=57
					57:leaf=-5.99441
					58:leaf=-59.2807
			14:[AREA_REALTIME_LEAVESHOP_AVGLOAD<1.17787] yes=29,no=30,missing=29
				29:[AREA_REALTIME_ARRIVAL_TIME<114.558] yes=59,no=60,missing=59
					59:leaf=29.7204
					60:leaf=-1.10878
				30:[SHOP_ARRIVAL_TIME<472.129] yes=61,no=62,missing=61
					61:leaf=5.85984
					62:leaf=40.4829
booster[36]:
0:[ORDER_DIST<36.2596] yes=1,no=2,missing=1
	1:[SHOP_REALTIME_AVG_DIST<2436.99] yes=3,no=4,missing=3
		3:[AREA_REALTIME_TOSHOP_ORDER<1118] yes=7,no=8,missing=7
			7:[AREA_REALTIME_TOCUSTOM_AVGLOAD<1.45267] yes=15,no=16,missing=15
				15:[SHOP_DISTIDX_CUSTOM_TIME<957.222] yes=29,no=30,missing=29
					29:leaf=-6.17816
					30:leaf=-23.7511
				16:[AREA_TIMEIDX_TOCUSTOM_AVGLOAD<2.46382] yes=31,no=32,missing=31
					31:leaf=-39.0051
					32:leaf=45.5938
			8:[SHOP_CUSTOM_TIME<1195.67] yes=17,no=18,missing=17
				17:[SHOP_TIMEIDX_LEAVE_TIME<811.55] yes=33,no=34,missing=33
					33:leaf=216.726
					34:leaf=14.0471
				18:leaf=-13.5686
		4:[SHOP_REALTIME_AVG_DIST<2453.54] yes=9,no=10,missing=9
			9:leaf=4239.55
			10:[AREA_REALTIME_ARRIVAL_TIME<495.746] yes=19,no=20,missing=19
				19:[SHOP_CUSTOM_TIME<1296.23] yes=35,no=36,missing=35
					35:leaf=-11.3604
					36:leaf=-86.7911
				20:[SHOP_AVG_DIST<1162.04] yes=37,no=38,missing=37
					37:leaf=196.182
					38:leaf=-1.59969
	2:[SHOP_TIMEIDX_CUSTOM_TIME<1046.09] yes=5,no=6,missing=5
		5:[SHOP_AVG_ORDER<57.6111] yes=11,no=12,missing=11
			11:[AREA_AVG_ORDER<14277.5] yes=21,no=22,missing=21
				21:[SHOP_LEAVE_TIME<928.064] yes=39,no=40,missing=39
					39:leaf=-0.274314
					40:leaf=9.60859
				22:[AREA_REALTIME_ARRIVAL_TIME<64.375] yes=41,no=42,missing=41
					41:leaf=132.789
					42:leaf=7.09446
			12:[SHOP_CUSTOM_TIME<1009.77] yes=23,no=24,missing=23
				23:[SHOP_AVG_ORDER<59.6667] yes=43,no=44,missing=43
					43:leaf=-11.6282
					44:leaf=0.0593705
				24:[ORDER_TIMEIDX<120.5] yes=45,no=46,missing=45
					45:leaf=3.84719
					46:leaf=-5.71374
		6:[SHOP_TIMEIDX_OVERSTOCK<6.94444] yes=13,no=14,missing=13
			13:[SHOP_REALTIME_OVERSTOCK<6.5] yes=25,no=26,missing=25
				25:[SHOP_AVG_DIST<1385.95] yes=47,no=48,missing=47
					47:leaf=2.03146
					48:leaf=-3.91192
				26:[AREA_REALTIME_LEAVESHOP_AVGLOAD<1.8357] yes=49,no=50,missing=49
					49:leaf=14.8437
					50:leaf=-8.57195
			14:[SHOP_AVG_ORDER<136.667] yes=27,no=28,missing=27
				27:[AREA_AVG_DIST<1157.56] yes=51,no=52,missing=51
					51:leaf=-18.0062
					52:leaf=-1.42181
				28:[SHOP_CUSTOM_TIME<1276.25] yes=53,no=54,missing=53
					53:leaf=2.52813
					54:leaf=-6.34131
booster[37]:
0:[SHOP_REALTIME_OVERSTOCK<1.5] yes=1,no=2,missing=1
	1:[SHOP_REALTIME_ARRIVAL_TIME<3.5] yes=3,no=4,missing=3
		3:[SHOP_REALTIME_AVG_DIST<215.25] yes=7,no=8,missing=7
			7:[AREA_REALTIME_TOCUSTOM_ORDER<2285.5] yes=15,no=16,missing=15
				15:[ORDER_TIMEIDX<245.5] yes=31,no=32,missing=31
					31:leaf=-0.216069
					32:leaf=-4.10993
				16:[AREA_REALTIME_DISTIDX_ARRIVAL_TIME<831.593] yes=33,no=34,missing=33
					33:leaf=13.8455
					34:leaf=90.0488
			8:[SHOP_LEAVE_TIME<1082.8] yes=17,no=18,missing=17
				17:[ORDER_TIMEIDX<11.5] yes=35,no=36,missing=35
					35:leaf=47.5792
					36:leaf=5.23137
				18:[AREA_REALTIME_CUSTOM_TIME<717.958] yes=37,no=38,missing=37
					37:leaf=1846.93
					38:leaf=16.0016
		4:[SHOP_REALTIME_NET_INFLOW<-500000] yes=9,no=10,missing=9
			9:[SHOP_REALTIME_ARRIVAL_TIME<558.5] yes=19,no=20,missing=19
				19:[AREA_REALTIME_TOCUSTOM_ORDER<421.5] yes=39,no=40,missing=39
					39:leaf=0.357359
					40:leaf=-13.1617
				20:[AREA_REALTIME_TOCUSTOM_AVGLOAD<4.00021] yes=41,no=42,missing=41
					41:leaf=14.2109
					42:leaf=-135.883
			10:[SHOP_CUSTOM_TIME<1278.24] yes=21,no=22,missing=21
				21:[AREA_REALTIME_LEAVESHOP_AVGLOAD<2.50385] yes=43,no=44,missing=43
					43:leaf=-5.72202
					44:leaf=126.253
				22:[ORDER_NAVI_DIST<4049.5] yes=45,no=46,missing=45
					45:leaf=-16.8848
					46:leaf=42.1189
	2:[SHOP_REALTIME_ARRIVAL_TIME<1.5] yes=5,no=6,missing=5
		5:[SHOP_REALTIME_AVG_DIST<181.404] yes=11,no=12,missing=11
			11:[SHOP_REALTIME_NET_INFLOW<-9.5] yes=23,no=24,missing=23
				23:[SHOP_TIMEIDX_NET_INFLOW<2.15556] yes=47,no=48,missing=47
					47:leaf=9.60002
					48:leaf=219.613
				24:[SHOP_REALTIME_NET_INFLOW<-1.5] yes=49,no=50,missing=49
					49:leaf=-7.43581
					50:leaf=2.57548
			12:[AREA_REALTIME_ORDER<357.5] yes=25,no=26,missing=25
				25:[AREA_TIMEIDX_TOSHOP_AVGLOAD<1.27484] yes=51,no=52,missing=51
					51:leaf=9.8364
					52:leaf=1.38487
				26:[SHOP_REALTIME_LEAVE_TIME<640.833] yes=53,no=54,missing=53
					53:leaf=230.213
					54:leaf=-126.109
		6:[SHOP_REALTIME_ARRIVAL_TIME<61.1833] yes=13,no=14,missing=13
			13:[AREA_TIMEIDX_TOCUSTOM_ORDER<445.5] yes=27,no=28,missing=27
				27:[SHOP_LEAVE_TIME<221.163] yes=55,no=56,missing=55
					55:leaf=-31.4918
					56:leaf=-1.45293
				28:[ORDER_TIMEIDX<131.5] yes=57,no=58,missing=57
					57:leaf=-26.9587
					58:leaf=-8.68124
			14:[AREA_REALTIME_CUSTOM_TIME<1070.99] yes=29,no=30,missing=29
				29:[SHOP_REALTIME_OVERSTOCK<25.5] yes=59,no=60,missing=59
					59:leaf=2.26719
					60:leaf=20.9613
				30:[AREA_TIMEIDX_TOSHOP_AVGLOAD<1.73478] yes=61,no=62,missing=61
					61:leaf=-3.2164
					62:leaf=36.6865
booster[38]:
0:[SHOP_ARRIVAL_TIME<495.604] yes=1,no=2,missing=1
	1:[ORDER_NAVI_DIST<3085.5] yes=3,no=4,missing=3
		3:[SHOP_DISTIDX_CUSTOM_TIME<1407.12] yes=7,no=8,missing=7
			7:[SHOP_LEAVE_TIME<684.679] yes=15,no=16,missing=15
				15:[SHOP_CUSTOM_TIME<1189.46] yes=31,no=32,missing=31
					31:leaf=-0.130641
					32:leaf=-6.15196
				16:[SHOP_REALTIME_LEAVE_TIME<159.5] yes=33,no=34,missing=33
					33:leaf=4.14209
					34:leaf=-1.40129
			8:[AREA_CUSTOM_TIME<955.967] yes=17,no=18,missing=17
				17:[SHOP_CUSTOM_TIME<1450.96] yes=35,no=36,missing=35
					35:leaf=-26.1943
					36:leaf=19.993
				18:[AREA_ARRIVAL_TIME<240.243] yes=37,no=38,missing=37
					37:leaf=3.70272
					38:leaf=-4.61481
		4:[AREA_DISTIDX_CUSTOM_TIME<1314.66] yes=9,no=10,missing=9
			9:[AREA_REALTIME_LEAVESHOP_AVGLOAD<2.04377] yes=19,no=20,missing=19
				19:[AREA_REALTIME_TOCUSTOM_AVGLOAD<1.30832] yes=39,no=40,missing=39
					39:leaf=-0.131236
					40:leaf=-15.3156
				20:[SHOP_AVG_ORDER<36.8333] yes=41,no=42,missing=41
					41:leaf=-38.9738
					42:leaf=128.727
			10:[AREA_TIMEIDX_TOCUSTOM_AVGLOAD<1.08356] yes=21,no=22,missing=21
				21:[SHOP_AVG_DIST<1784.48] yes=43,no=44,missing=43
					43:leaf=18.8962
					44:leaf=347.61
				22:[ORDER_TIMEIDX<178.5] yes=45,no=46,missing=45
					45:leaf=1.16499
					46:leaf=6.62258
	2:[SHOP_ARRIVAL_TIME<519.178] yes=5,no=6,missing=5
		5:[SHOP_REALTIME_OVERSTOCK<12.5] yes=11,no=12,missing=11
			11:[SHOP_AVG_DIST<1227.45] yes=23,no=24,missing=23
				23:[SHOP_TIMEIDX_CUSTOM_TIME<3749] yes=47,no=48,missing=47
					47:leaf=-16.5799
					48:leaf=149.58
				24:[AREA_REALTIME_ORDER<357.5] yes=49,no=50,missing=49
					49:leaf=-42.7513
					50:leaf=-359.904
			12:[AREA_DISTIDX_TIMEIDX_LEAVE_TIME<731.3] yes=25,no=26,missing=25
				25:[AREA_DISTIDX_TIMEIDX_CUSTOM_TIME<1628.35] yes=51,no=52,missing=51
					51:leaf=-7.42562
					52:leaf=234.264
				26:[SHOP_REALTIME_LEAVE_TIME<-499726] yes=53,no=54,missing=53
					53:leaf=309.067
					54:leaf=135.474
		6:[AREA_DISTIDX_ARRIVAL_TIME<265.688] yes=13,no=14,missing=13
			13:[SHOP_ARRIVAL_TIME<886.5] yes=27,no=28,missing=27
				27:[SHOP_AVG_DIST<872.695] yes=55,no=56,missing=55
					55:leaf=-39.5289
					56:leaf=-6.77863
				28:[AREA_LEAVE_TIME<575.634] yes=57,no=58,missing=57
					57:leaf=-111.004
					58:leaf=85.3903
			14:[AREA_TIMEIDX_ORDER<40.7778] yes=29,no=30,missing=29
				29:[SHOP_ARRIVAL_TIME<715.915] yes=59,no=60,missing=59
					59:leaf=-17.7082
					60:leaf=-72.4801
				30:[AREA_REALTIME_TOSHOP_AVGLOAD<2.32679] yes=61,no=62,missing=61
					61:leaf=21.245
					62:leaf=-176.572
booster[39]:
0:[SHOP_DISTIDX_CUSTOM_TIME<861.068] yes=1,no=2,missing=1
	1:[SHOP_DISTIDX_CUSTOM_TIME<542.233] yes=3,no=4,missing=3
		3:[AREA_ARRIVAL_TIME<279.317] yes=7,no=8,missing=7
			7:[AREA_LEAVE_TIME<553.074] yes=15,no=16,missing=15
				15:[AREA_DISTIDX_ARRIVAL_TIME<221.544] yes=31,no=32,missing=31
					31:leaf=2.59253
					32:leaf=44.4695
				16:[ORDER_TIMEIDX<18.5] yes=33,no=34,missing=33
					33:leaf=23.6693
					34:leaf=-5.18092
			8:[AREA_REALTIME_LEAVESHOP_AVGLOAD<1.34861] yes=17,no=18,missing=17
				17:[SHOP_ARRIVAL_TIME<236.017] yes=35,no=36,missing=35
					35:leaf=0.649446
					36:leaf=29.1957
				18:[ORDER_NAVI_DIST<2499] yes=37,no=38,missing=37
					37:leaf=18.5425
					38:leaf=121.755
		4:[ORDER_NAVI_DIST<1504.5] yes=9,no=10,missing=9
			9:[SHOP_REALTIME_CUSTOM_TIME<1186.25] yes=19,no=20,missing=19
				19:[AREA_REALTIME_LEAVESHOP_AVGLOAD<1.60601] yes=39,no=40,missing=39
					39:leaf=1.25481
					40:leaf=-13.736
				20:[SHOP_REALTIME_OVERSTOCK<26.5] yes=41,no=42,missing=41
					41:leaf=9.0575
					42:leaf=45.334
			10:[AREA_REALTIME_TOCUSTOM_ORDER<2044] yes=21,no=22,missing=21
				21:[AREA_REALTIME_TOSHOP_ORDER<904] yes=43,no=44,missing=43
					43:leaf=7.83372
					44:leaf=147.719
				22:[SHOP_DISTIDX_CUSTOM_TIME<739.63] yes=45,no=46,missing=45
					45:leaf=168.546
					46:leaf=-91.8791
	2:[ORDER_DIST<288.383] yes=5,no=6,missing=5
		5:[SHOP_REALTIME_AVG_DIST<1837.18] yes=11,no=12,missing=11
			11:[SHOP_LEAVE_TIME<632.47] yes=23,no=24,missing=23
				23:[SHOP_DISTIDX_CUSTOM_TIME<928.761] yes=47,no=48,missing=47
					47:leaf=-7.44533
					48:leaf=-30.3609
				24:[SHOP_DISTIDX_CUSTOM_TIME<1097.07] yes=49,no=50,missing=49
					49:leaf=-4.31451
					50:leaf=-13.7989
			12:[AREA_REALTIME_CUSTOM_TIME<715.319] yes=25,no=26,missing=25
				25:[SHOP_LEAVE_TIME<1071.9] yes=51,no=52,missing=51
					51:leaf=-12.7443
					52:leaf=5293.89
				26:[ORDER_DIST<23.0827] yes=53,no=54,missing=53
					53:leaf=109.482
					54:leaf=-3.04845
		6:[SHOP_LEAVE_TIME<425.717] yes=13,no=14,missing=13
			13:[ORDER_DIST<1014.16] yes=27,no=28,missing=27
				27:[AREA_REALTIME_LEAVESHOP_AVGLOAD<2.58864] yes=55,no=56,missing=55
					55:leaf=-19.3134
					56:leaf=-224.49
